{"learner":{"attributes":{},"feature_names":[],"feature_types":[],"gradient_booster":{"model":{"cats":{"enc":[],"feature_segments":[],"sorted_idx":[]},"gbtree_model_param":{"num_parallel_tree":"1","num_trees":"600"},"iteration_indptr":[0,1,2,3,4,5,6,7,8,9,10,11,12,13,14,15,16,17,18,19,20,21,22,23,24,25,26,27,28,29,30,31,32,33,34,35,36,37,38,39,40,41,42,43,44,45,46,47,48,49,50,51,52,53,54,55,56,57,58,59,60,61,62,63,64,65,66,67,68,69,70,71,72,73,74,75,76,77,78,79,80,81,82,83,84,85,86,87,88,89,90,91,92,93,94,95,96,97,98,99,100,101,102,103,104,105,106,107,108,109,110,111,112,113,114,115,116,117,118,119,120,121,122,123,124,125,126,127,128,129,130,131,132,133,134,135,136,137,138,139,140,141,142,143,144,145,146,147,148,149,150,151,152,153,154,155,156,157,158,159,160,161,162,163,164,165,166,167,168,169,170,171,172,173,174,175,176,177,178,179,180,181,182,183,184,185,186,187,188,189,190,191,192,193,194,195,196,197,198,199,200,201,202,203,204,205,206,207,208,209,210,211,212,213,214,215,216,217,218,219,220,221,222,223,224,225,226,227,228,229,230,231,232,233,234,235,236,237,238,239,240,241,242,243,244,245,246,247,248,249,250,251,252,253,254,255,256,257,258,259,260,261,262,263,264,265,266,267,268,269,270,271,272,273,274,275,276,277,278,279,280,281,282,283,284,285,286,287,288,289,290,291,292,293,294,295,296,297,298,299,300,301,302,303,304,305,306,307,308,309,310,311,312,313,314,315,316,317,318,319,320,321,322,323,324,325,326,327,328,329,330,331,332,333,334,335,336,337,338,339,340,341,342,343,344,345,346,347,348,349,350,351,352,353,354,355,356,357,358,359,360,361,362,363,364,365,366,367,368,369,370,371,372,373,374,375,376,377,378,379,380,381,382,383,384,385,386,387,388,389,390,391,392,393,394,395,396,397,398,399,400,401,402,403,404,405,406,407,408,409,410,411,412,413,414,415,416,417,418,419,420,421,422,423,424,425,426,427,428,429,430,431,432,433,434,435,436,437,438,439,440,441,442,443,444,445,446,447,448,449,450,451,452,453,454,455,456,457,458,459,460,461,462,463,464,465,466,467,468,469,470,471,472,473,474,475,476,477,478,479,480,481,482,483,484,485,486,487,488,489,490,491,492,493,494,495,496,497,498,499,500,501,502,503,504,505,506,507,508,509,510,511,512,513,514,515,516,517,518,519,520,521,522,523,524,525,526,527,528,529,530,531,532,533,534,535,536,537,538,539,540,541,542,543,544,545,546,547,548,549,550,551,552,553,554,555,556,557,558,559,560,561,562,563,564,565,566,567,568,569,570,571,572,573,574,575,576,577,578,579,580,581,582,583,584,585,586,587,588,589,590,591,592,593,594,595,596,597,598,599,600],"tree_info":[0,0,0,0,0,0,0,0,0,0,0,0,0,0,0,0,0,0,0,0,0,0,0,0,0,0,0,0,0,0,0,0,0,0,0,0,0,0,0,0,0,0,0,0,0,0,0,0,0,0,0,0,0,0,0,0,0,0,0,0,0,0,0,0,0,0,0,0,0,0,0,0,0,0,0,0,0,0,0,0,0,0,0,0,0,0,0,0,0,0,0,0,0,0,0,0,0,0,0,0,0,0,0,0,0,0,0,0,0,0,0,0,0,0,0,0,0,0,0,0,0,0,0,0,0,0,0,0,0,0,0,0,0,0,0,0,0,0,0,0,0,0,0,0,0,0,0,0,0,0,0,0,0,0,0,0,0,0,0,0,0,0,0,0,0,0,0,0,0,0,0,0,0,0,0,0,0,0,0,0,0,0,0,0,0,0,0,0,0,0,0,0,0,0,0,0,0,0,0,0,0,0,0,0,0,0,0,0,0,0,0,0,0,0,0,0,0,0,0,0,0,0,0,0,0,0,0,0,0,0,0,0,0,0,0,0,0,0,0,0,0,0,0,0,0,0,0,0,0,0,0,0,0,0,0,0,0,0,0,0,0,0,0,0,0,0,0,0,0,0,0,0,0,0,0,0,0,0,0,0,0,0,0,0,0,0,0,0,0,0,0,0,0,0,0,0,0,0,0,0,0,0,0,0,0,0,0,0,0,0,0,0,0,0,0,0,0,0,0,0,0,0,0,0,0,0,0,0,0,0,0,0,0,0,0,0,0,0,0,0,0,0,0,0,0,0,0,0,0,0,0,0,0,0,0,0,0,0,0,0,0,0,0,0,0,0,0,0,0,0,0,0,0,0,0,0,0,0,0,0,0,0,0,0,0,0,0,0,0,0,0,0,0,0,0,0,0,0,0,0,0,0,0,0,0,0,0,0,0,0,0,0,0,0,0,0,0,0,0,0,0,0,0,0,0,0,0,0,0,0,0,0,0,0,0,0,0,0,0,0,0,0,0,0,0,0,0,0,0,0,0,0,0,0,0,0,0,0,0,0,0,0,0,0,0,0,0,0,0,0,0,0,0,0,0,0,0,0,0,0,0,0,0,0,0,0,0,0,0,0,0,0,0,0,0,0,0,0,0,0,0,0,0,0,0,0,0,0,0,0,0,0,0,0,0,0,0,0,0,0,0,0,0,0,0,0,0,0,0,0,0,0,0,0,0,0,0,0,0,0,0,0,0,0,0,0,0,0,0,0,0,0,0,0,0,0,0,0,0,0,0,0,0,0,0,0,0,0,0,0,0,0,0,0,0,0,0,0,0,0,0,0,0,0,0,0,0,0,0,0,0,0,0,0,0,0,0,0,0,0],"trees":[{"base_weights":[-1.3002303E-3,-2.886906E-1,7.754967E-1,-7.4436724E-1,1.9943176E-1,1.0788513E0,3.0771622E-1,-1.113227E0,-2.7246773E-1,2.4340306E-1,-2.7246773E-1,1.3825519E0,7.521363E-1,2.4340306E-1,6.932838E-1,-2.4249658E-2,-4.892322E-2,-9.536371E-3,-2.4249658E-2,8.5191075E-3,-5.0863175E-4,-9.536371E-3,-5.0863175E-4,4.184723E-2,5.637069E-2,2.4264934E-2,3.7357043E-2,8.5191075E-3,1.639202E-2,2.4264934E-2,1.639202E-2],"categories":[],"categories_nodes":[],"categories_segments":[],"categories_sizes":[],"default_left":[0,0,0,0,0,0,0,0,0,0,0,0,0,0,0,0,0,0,0,0,0,0,0,0,0,0,0,0,0,0,0],"id":0,"left_children":[1,3,5,7,9,11,13,15,17,19,21,23,25,27,29,-1,-1,-1,-1,-1,-1,-1,-1,-1,-1,-1,-1,-1,-1,-1,-1],"loss_changes":[2.5873577E3,1.8830209E3,4.4256958E2,1.0019121E3,6.071906E2,1.8482324E2,1.7762027E2,5.069685E2,1.1731956E2,8.647687E1,9.984624E1,3.5891235E1,9.047412E1,3.399916E1,1.9839233E1,0E0,0E0,0E0,0E0,0E0,0E0,0E0,0E0,0E0,0E0,0E0,0E0,0E0,0E0,0E0,0E0],"parents":[2147483647,0,0,1,1,2,2,3,3,4,4,5,5,6,6,7,7,8,8,9,9,10,10,11,11,12,12,13,13,14,14],"right_children":[2,4,6,8,10,12,14,16,18,20,22,24,26,28,30,-1,-1,-1,-1,-1,-1,-1,-1,-1,-1,-1,-1,-1,-1,-1,-1],"split_conditions":[1.1272693E0,3.0519354E-1,7.4961466E-1,5.944945E-1,7.289104E-1,6.4879775E-1,5.4944813E-1,5.9905964E-1,8.282168E-1,8.0305535E-1,7.7498204E-1,5.1470745E-1,2.0524151E0,2.5584903E0,7.273434E-1,-2.4249658E-2,-4.892322E-2,-9.536371E-3,-2.4249658E-2,8.5191075E-3,-5.0863175E-4,-9.536371E-3,-5.0863175E-4,4.184723E-2,5.637069E-2,2.4264934E-2,3.7357043E-2,8.5191075E-3,1.639202E-2,2.4264934E-2,1.639202E-2],"split_indices":[4,9,7,1,3,3,1,7,7,7,1,1,4,4,3,0,0,0,0,0,0,0,0,0,0,0,0,0,0,0,0],"split_type":[0,0,0,0,0,0,0,0,0,0,0,0,0,0,0,0,0,0,0,0,0,0,0,0,0,0,0,0,0,0,0],"sum_hessian":[1.1576472E4,8.45249E3,3.1239822E3,4.371779E3,4.080711E3,1.8913739E3,1.2326084E3,2.791849E3,1.5799298E3,2.7172646E3,1.363446E3,9.736002E2,9.177736E2,7.156297E2,5.169787E2,7.7913684E2,2.0127123E3,1.2396705E3,3.4025922E2,1.9671626E3,7.501021E2,9.885685E2,3.7487762E2,5.47745E2,4.258552E2,6.240093E2,2.9376434E2,5.8301434E2,1.3261533E2,3.3910315E2,1.7787553E2],"tree_param":{"num_deleted":"0","num_feature":"10","num_nodes":"31","size_leaf_vector":"1"}},{"base_weights":[8.402413E-3,-3.787715E-1,6.0431826E-1,-7.728589E-1,1.1277337E-1,1.010165E0,2.3554854E-1,-3.3004278E-1,-1.1800692E0,1.1277337E-1,-3.3004278E-1,6.2285674E-1,1.2979677E0,1.1277337E-1,6.2285674E-1,-1.15514975E-2,-2.6426962E-2,-2.6426962E-2,-5.0993294E-2,3.947068E-3,-3.8022145E-3,-1.15514975E-2,-3.8022145E-3,2.1799985E-2,3.3614427E-2,3.5198282E-2,5.4269176E-2,1.2873527E-2,3.947068E-3,1.2873527E-2,2.1799985E-2],"categories":[],"categories_nodes":[],"categories_segments":[],"categories_sizes":[],"default_left":[0,0,0,0,0,0,0,0,0,0,0,0,0,0,0,0,0,0,0,0,0,0,0,0,0,0,0,0,0,0,0],"id":1,"left_children":[1,3,5,7,9,11,13,15,17,19,21,23,25,27,29,-1,-1,-1,-1,-1,-1,-1,-1,-1,-1,-1,-1,-1,-1,-1,-1],"loss_changes":[2.6960369E3,1.6056034E3,6.87672E2,9.678694E2,2.5477379E2,2.6489233E2,3.838242E2,1.6774026E2,3.2919678E2,2.8622833E1,8.503038E1,8.343619E1,9.143823E1,9.481927E1,2.4747803E1,0E0,0E0,0E0,0E0,0E0,0E0,0E0,0E0,0E0,0E0,0E0,0E0,0E0,0E0,0E0,0E0],"parents":[2147483647,0,0,1,1,2,2,3,3,4,4,5,5,6,6,7,7,8,8,9,9,10,10,11,11,12,12,13,13,14,14],"right_children":[2,4,6,8,10,12,14,16,18,20,22,24,26,28,30,-1,-1,-1,-1,-1,-1,-1,-1,-1,-1,-1,-1,-1,-1,-1,-1],"split_conditions":[4.0362155E-1,7.584205E-1,6.303624E-1,6.063904E-1,7.127484E-1,2.6457113E-1,1.0337652E0,7.83868E-1,6.4875364E-1,1.2545033E0,1.482446E0,1.2290312E0,5.663535E-1,5.3512317E-1,1.8942057E-1,-1.15514975E-2,-2.6426962E-2,-2.6426962E-2,-5.0993294E-2,3.947068E-3,-3.8022145E-3,-1.15514975E-2,-3.8022145E-3,2.1799985E-2,3.3614427E-2,3.5198282E-2,5.4269176E-2,1.2873527E-2,3.947068E-3,1.2873527E-2,2.1799985E-2],"split_indices":[0,4,3,3,3,9,4,7,7,6,4,4,4,7,9,0,0,0,0,0,0,0,0,0,0,0,0,0,0,0,0],"split_type":[0,0,0,0,0,0,0,0,0,0,0,0,0,0,0,0,0,0,0,0,0,0,0,0,0,0,0,0,0,0,0],"sum_hessian":[1.1669759E4,7.0734595E3,4.5962993E3,4.223002E3,2.850457E3,2.184374E3,2.4119253E3,1.7402853E3,2.4827168E3,1.8126516E3,1.0378054E3,8.8497034E2,1.2994036E3,1.6566599E3,7.552653E2,1.1767563E3,5.6352905E2,9.0375714E2,1.5789597E3,1.5898003E3,2.2285135E2,6.0065924E2,4.3714618E2,6.616406E2,2.2332971E2,6.11101E2,6.883026E2,3.217135E2,1.3349465E3,1.7458623E2,5.806791E2],"tree_param":{"num_deleted":"0","num_feature":"10","num_nodes":"31","size_leaf_vector":"1"}},{"base_weights":[1.3171302E-2,-3.486708E-1,5.7591623E-1,-7.3433524E-1,1.1362271E-1,1.1362271E-1,9.010776E-1,-3.1035626E-1,-1.0979571E0,1.1362271E-1,-3.1035626E-1,5.0735015E-1,1.1362271E-1,1.202756E0,5.0735015E-1,-1.0862469E-2,-2.4645485E-2,-2.4645485E-2,-4.8796143E-2,-3.4428372E-3,3.976795E-3,-1.0862469E-2,-3.4428372E-3,1.7757256E-2,1.0867026E-2,3.976795E-3,1.0867026E-2,4.9003005E-2,2.9926857E-2,2.9926857E-2,1.7757256E-2],"categories":[],"categories_nodes":[],"categories_segments":[],"categories_sizes":[],"default_left":[0,0,0,0,0,0,0,0,0,0,0,0,0,0,0,0,0,0,0,0,0,0,0,0,0,0,0,0,0,0,0],"id":2,"left_children":[1,3,5,7,9,11,13,15,17,19,21,23,25,27,29,-1,-1,-1,-1,-1,-1,-1,-1,-1,-1,-1,-1,-1,-1,-1,-1],"loss_changes":[2.3686982E3,1.576842E3,6.9352893E2,7.9711523E2,1.6928271E2,2.2935619E2,3.26761E2,1.7303137E2,3.3872607E2,5.4785736E1,4.4941025E1,2.1229675E1,5.725296E1,1.1751538E2,1.1096451E2,0E0,0E0,0E0,0E0,0E0,0E0,0E0,0E0,0E0,0E0,0E0,0E0,0E0,0E0,0E0,0E0],"parents":[2147483647,0,0,1,1,2,2,3,3,4,4,5,5,6,6,7,7,8,8,9,9,10,10,11,11,12,12,13,13,14,14],"right_children":[2,4,6,8,10,12,14,16,18,20,22,24,26,28,30,-1,-1,-1,-1,-1,-1,-1,-1,-1,-1,-1,-1,-1,-1,-1,-1],"split_conditions":[4.0362155E-1,5.6184804E-1,2.6457113E-1,6.6704977E-1,7.532971E-1,6.2865305E-1,6.0102063E-1,6.9437826E-1,5.2185583E-1,1.5331748E-1,4.18368E-1,7.439616E-1,9.766065E-1,1.0653358E0,6.465583E-1,-1.0862469E-2,-2.4645485E-2,-2.4645485E-2,-4.8796143E-2,-3.4428372E-3,3.976795E-3,-1.0862469E-2,-3.4428372E-3,1.7757256E-2,1.0867026E-2,3.976795E-3,1.0867026E-2,4.9003005E-2,2.9926857E-2,2.9926857E-2,1.7757256E-2],"split_indices":[0,1,9,7,2,7,2,2,2,9,9,2,1,6,7,0,0,0,0,0,0,0,0,0,0,0,0,0,0,0,0],"split_type":[0,0,0,0,0,0,0,0,0,0,0,0,0,0,0,0,0,0,0,0,0,0,0,0,0,0,0,0,0,0,0],"sum_hessian":[1.1616632E4,7.0700137E3,4.546618E3,4.2912695E3,2.7787441E3,1.8641152E3,2.6825032E3,1.7655435E3,2.525726E3,2.204804E3,5.739403E2,6.619982E2,1.202117E3,1.5339238E3,1.1485792E3,1.2474442E3,5.180992E2,9.917937E2,1.5339325E3,4.060501E2,1.7987538E3,4.053196E2,1.686207E2,5.3239087E2,1.2960735E2,9.5878326E2,2.433337E2,1.0241439E3,5.0977988E2,4.525413E2,6.9603796E2],"tree_param":{"num_deleted":"0","num_feature":"10","num_nodes":"31","size_leaf_vector":"1"}},{"base_weights":[9.403654E-3,-4.5474127E-1,4.2905086E-1,-8.539501E-1,-1.2845203E-2,2.084568E-1,1.1532525E0,-1.1841683E0,-4.3339765E-1,-1.2845203E-2,-4.3339765E-1,6.7990863E-1,-1.2845203E-2,8.1961703E-1,1.3914417E0,-2.8307404E-2,-5.013588E-2,-1.5168918E-2,-2.8307404E-2,-4.4958212E-4,-7.80925E-3,-1.5168918E-2,-7.80925E-3,2.382991E-2,1.167361E-2,-4.4958212E-4,1.167361E-2,2.382991E-2,3.8693525E-2,5.570816E-2,3.8693525E-2],"categories":[],"categories_nodes":[],"categories_segments":[],"categories_sizes":[],"default_left":[0,0,0,0,0,0,0,0,0,0,0,0,0,0,0,0,0,0,0,0,0,0,0,0,0,0,0,0,0,0,0],"id":3,"left_children":[1,3,5,7,9,11,13,15,17,19,21,23,25,27,29,-1,-1,-1,-1,-1,-1,-1,-1,-1,-1,-1,-1,-1,-1,-1,-1],"loss_changes":[2.2697905E3,1.2171794E3,9.7691345E2,7.036355E2,1.8033473E2,8.297168E2,1.0983423E2,3.4122583E2,6.9509735E1,3.7465237E1,3.8934006E1,1.7434552E2,2.2071635E2,5.9896515E1,4.355542E1,0E0,0E0,0E0,0E0,0E0,0E0,0E0,0E0,0E0,0E0,0E0,0E0,0E0,0E0,0E0,0E0],"parents":[2147483647,0,0,1,1,2,2,3,3,4,4,5,5,6,6,7,7,8,8,9,9,10,10,11,11,12,12,13,13,14,14],"right_children":[2,4,6,8,10,12,14,16,18,20,22,24,26,28,30,-1,-1,-1,-1,-1,-1,-1,-1,-1,-1,-1,-1,-1,-1,-1,-1],"split_conditions":[3.3624524E-1,7.416588E-1,9.031256E-1,7.085643E-1,7.8014827E-1,6.2840897E-1,2.7156714E-1,5.1200247E-1,7.8737867E-1,7.577079E-1,8.5691243E-1,6.786233E-1,1.3304516E0,1.2824762E0,6.8426734E-1,-2.8307404E-2,-5.013588E-2,-1.5168918E-2,-2.8307404E-2,-4.4958212E-4,-7.80925E-3,-1.5168918E-2,-7.80925E-3,2.382991E-2,1.167361E-2,-4.4958212E-4,1.167361E-2,2.382991E-2,3.8693525E-2,5.570816E-2,3.8693525E-2],"split_indices":[0,4,1,1,3,3,9,3,3,2,1,2,4,1,3,0,0,0,0,0,0,0,0,0,0,0,0,0,0,0,0],"split_type":[0,0,0,0,0,0,0,0,0,0,0,0,0,0,0,0,0,0,0,0,0,0,0,0,0,0,0,0,0,0,0],"sum_hessian":[1.163842E4,5.52497E3,6.1134497E3,3.2421992E3,2.2827712E3,4.6900806E3,1.4233689E3,2.2634468E3,9.787523E2,1.7197493E3,5.630218E2,2.202873E3,2.4872075E3,6.00192E2,8.231769E2,5.6432404E2,1.6991228E3,7.73179E2,2.0557326E2,1.3764235E3,3.4332584E2,4.233016E2,1.3972023E2,1.5489283E3,6.5394476E2,1.9473505E3,5.3985724E2,2.6764615E2,3.325459E2,4.8090265E2,3.4227423E2],"tree_param":{"num_deleted":"0","num_feature":"10","num_nodes":"31","size_leaf_vector":"1"}},{"base_weights":[1.9308519E-2,-2.8179613E-1,6.388267E-1,-6.6698015E-1,1.785153E-1,1.0371884E0,2.5633374E-1,-2.8480297E-1,-1.2095338E0,1.785153E-1,-2.4423242E-1,6.4676106E-1,1.2074295E0,6.4676106E-1,1.785153E-1,-8.548135E-3,-2.6150895E-2,-2.6150895E-2,-5.1433258E-2,6.2480355E-3,-1.1500495E-3,-1.1500495E-3,-8.548135E-3,2.2636637E-2,3.2448336E-2,3.5990126E-2,5.2775413E-2,1.4442337E-2,2.2636637E-2,6.2480355E-3,1.4442337E-2],"categories":[],"categories_nodes":[],"categories_segments":[],"categories_sizes":[],"default_left":[0,0,0,0,0,0,0,0,0,0,0,0,0,0,0,0,0,0,0,0,0,0,0,0,0,0,0,0,0,0,0],"id":4,"left_children":[1,3,5,7,9,11,13,15,17,19,21,23,25,27,29,-1,-1,-1,-1,-1,-1,-1,-1,-1,-1,-1,-1,-1,-1,-1,-1],"loss_changes":[2.1696052E3,1.6367217E3,5.7842615E2,9.541658E2,2.5369751E2,1.473966E2,2.5278163E2,3.7999487E2,2.7513306E2,4.7316986E1,8.329266E1,4.074034E1,6.940015E1,3.7998383E1,7.2431656E1,0E0,0E0,0E0,0E0,0E0,0E0,0E0,0E0,0E0,0E0,0E0,0E0,0E0,0E0,0E0,0E0],"parents":[2147483647,0,0,1,1,2,2,3,3,4,4,5,5,6,6,7,7,8,8,9,9,10,10,11,11,12,12,13,13,14,14],"right_children":[2,4,6,8,10,12,14,16,18,20,22,24,26,28,30,-1,-1,-1,-1,-1,-1,-1,-1,-1,-1,-1,-1,-1,-1,-1,-1],"split_conditions":[9.5766795E-1,3.9246768E-1,6.925111E-1,6.996498E-1,6.786233E-1,2.3659863E-1,5.997553E-1,7.8211206E-1,4.723624E-1,1.1331323E0,5.9647745E-1,2.1693125E0,1.7654798E0,2.9712608E-1,2.5584903E0,-8.548135E-3,-2.6150895E-2,-2.6150895E-2,-5.1433258E-2,6.2480355E-3,-1.1500495E-3,-1.1500495E-3,-8.548135E-3,2.2636637E-2,3.2448336E-2,3.5990126E-2,5.2775413E-2,1.4442337E-2,2.2636637E-2,6.2480355E-3,1.4442337E-2],"split_indices":[4,0,7,3,2,0,3,7,2,6,7,4,4,0,4,0,0,0,0,0,0,0,0,0,0,0,0,0,0,0,0],"split_type":[0,0,0,0,0,0,0,0,0,0,0,0,0,0,0,0,0,0,0,0,0,0,0,0,0,0,0,0,0,0,0],"sum_hessian":[1.1613316E4,7.8150073E3,3.7983096E3,4.6028896E3,3.2121174E3,1.8567635E3,1.9415459E3,2.7043513E3,1.8985386E3,2.2390923E3,9.7302515E2,4.86126E2,1.3706376E3,7.8846875E2,1.1530771E3,1.8246011E3,8.7975024E2,5.929719E2,1.3055665E3,1.7356072E3,5.0348514E2,2.894778E2,6.835473E2,3.5488E2,1.31246E2,8.690522E2,5.015854E2,2.779673E2,5.1050143E2,9.6783E2,1.8524712E2],"tree_param":{"num_deleted":"0","num_feature":"10","num_nodes":"31","size_leaf_vector":"1"}},{"base_weights":[4.6705287E-3,-2.1956477E-1,8.32035E-1,-5.232957E-1,3.0623513E-1,3.0623513E-1,1.0514617E0,-9.589523E-1,-1.0853028E-1,3.0623513E-1,-1.0853028E-1,3.0623513E-1,6.788484E-1,1.2605636E0,6.788484E-1,-1.8680945E-2,-4.3797947E-2,-3.79856E-3,-1.8680945E-2,1.071823E-2,3.459835E-3,-3.79856E-3,3.459835E-3,1.071823E-2,1.7238962E-2,2.3759693E-2,1.7238962E-2,3.6233556E-2,5.3117894E-2,3.393971E-2,2.3759693E-2],"categories":[],"categories_nodes":[],"categories_segments":[],"categories_sizes":[],"default_left":[0,0,0,0,0,0,0,0,0,0,0,0,0,0,0,0,0,0,0,0,0,0,0,0,0,0,0,0,0,0,0],"id":5,"left_children":[1,3,5,7,9,11,13,15,17,19,21,23,25,27,29,-1,-1,-1,-1,-1,-1,-1,-1,-1,-1,-1,-1,-1,-1,-1,-1],"loss_changes":[2.1409214E3,1.776867E3,2.9381775E2,1.2671422E3,1.9145288E2,8.158032E1,1.5054993E2,5.9690356E2,3.5912585E2,1.7117249E1,8.21191E1,2.5730019E1,3.6646118E0,6.2910522E1,4.2964355E1,0E0,0E0,0E0,0E0,0E0,0E0,0E0,0E0,0E0,0E0,0E0,0E0,0E0,0E0,0E0,0E0],"parents":[2147483647,0,0,1,1,2,2,3,3,4,4,5,5,6,6,7,7,8,8,9,9,10,10,11,11,12,12,13,13,14,14],"right_children":[2,4,6,8,10,12,14,16,18,20,22,24,26,28,30,-1,-1,-1,-1,-1,-1,-1,-1,-1,-1,-1,-1,-1,-1,-1,-1],"split_conditions":[9.3885124E-1,9.76563E-1,2.5645143E-1,3.0348864E-1,7.6246136E-1,1.1272693E0,1.0627093E0,5.9905964E-1,6.786233E-1,1.2545033E0,1.7971729E0,1.8806983E0,1.2912724E0,1.4260463E0,6.354612E-1,-1.8680945E-2,-4.3797947E-2,-3.79856E-3,-1.8680945E-2,1.071823E-2,3.459835E-3,-3.79856E-3,3.459835E-3,1.071823E-2,1.7238962E-2,2.3759693E-2,1.7238962E-2,3.6233556E-2,5.3117894E-2,3.393971E-2,2.3759693E-2],"split_indices":[1,4,0,9,7,4,6,7,2,6,4,1,6,1,7,0,0,0,0,0,0,0,0,0,0,0,0,0,0,0,0],"split_type":[0,0,0,0,0,0,0,0,0,0,0,0,0,0,0,0,0,0,0,0,0,0,0,0,0,0,0,0,0,0,0],"sum_hessian":[1.1519302E4,9.063795E3,2.4555068E3,6.221479E3,2.8423154E3,7.05863E2,1.7496438E3,3.2285388E3,2.9929404E3,1.8341003E3,1.008215E3,5.0401465E2,2.0184837E2,1.163846E3,5.857979E2,9.374216E2,2.2911172E3,2.0545237E3,9.384166E2,1.61128E3,2.2282025E2,6.237239E2,3.8449115E2,3.9662292E2,1.0739171E2,1.9004712E2,1.180125E1,6.303579E2,5.33488E2,2.2532253E2,3.604754E2],"tree_param":{"num_deleted":"0","num_feature":"10","num_nodes":"31","size_leaf_vector":"1"}},{"base_weights":[2.2647716E-2,4.5037436E-1,-3.8408625E-1,8.553274E-1,7.045099E-2,-6.809542E-1,3.3144057E-2,5.783365E-1,1.2514908E0,3.3144057E-2,4.628892E-1,-3.2390508E-1,-1.0756909E0,3.3144057E-2,-3.2390508E-1,1.6201122E-2,3.2021977E-2,5.0522238E-2,3.2021977E-2,1.160042E-3,8.680582E-3,1.6201122E-2,8.680582E-3,-1.1336678E-2,-2.4492929E-2,-4.753821E-2,-2.4492929E-2,1.160042E-3,-5.088318E-3,-1.1336678E-2,-5.088318E-3],"categories":[],"categories_nodes":[],"categories_segments":[],"categories_sizes":[],"default_left":[0,0,0,0,0,0,0,0,0,0,0,0,0,0,0,0,0,0,0,0,0,0,0,0,0,0,0,0,0,0,0],"id":6,"left_children":[1,3,5,7,9,11,13,15,17,19,21,23,25,27,29,-1,-1,-1,-1,-1,-1,-1,-1,-1,-1,-1,-1,-1,-1,-1,-1],"loss_changes":[2.0032585E3,8.627949E2,1.0540135E3,2.9571265E2,3.550499E2,6.5561755E2,7.490613E1,1.91646E2,6.9037476E1,9.534521E1,2.5743896E1,1.5527107E2,2.6063867E2,2.4476822E1,2.1132256E1,0E0,0E0,0E0,0E0,0E0,0E0,0E0,0E0,0E0,0E0,0E0,0E0,0E0,0E0,0E0,0E0],"parents":[2147483647,0,0,1,1,2,2,3,3,4,4,5,5,6,6,7,7,8,8,9,9,10,10,11,11,12,12,13,13,14,14],"right_children":[2,4,6,8,10,12,14,16,18,20,22,24,26,28,30,-1,-1,-1,-1,-1,-1,-1,-1,-1,-1,-1,-1,-1,-1,-1,-1],"split_conditions":[6.424496E-1,6.944738E-1,7.085643E-1,5.682021E-1,7.166671E-1,7.0556605E-1,1.182354E0,9.1550344E-1,6.4225024E-1,1.3304516E0,1.1088334E0,6.445219E-1,7.6798457E-1,7.695122E-1,1.5343151E0,1.6201122E-2,3.2021977E-2,5.0522238E-2,3.2021977E-2,1.160042E-3,8.680582E-3,1.6201122E-2,8.680582E-3,-1.1336678E-2,-2.4492929E-2,-4.753821E-2,-2.4492929E-2,1.160042E-3,-5.088318E-3,-1.1336678E-2,-5.088318E-3],"split_indices":[3,7,1,1,1,7,6,4,2,4,6,2,4,2,1,0,0,0,0,0,0,0,0,0,0,0,0,0,0,0,0],"split_type":[0,0,0,0,0,0,0,0,0,0,0,0,0,0,0,0,0,0,0,0,0,0,0,0,0,0,0,0,0,0,0],"sum_hessian":[1.1499205E4,5.606E3,5.8932046E3,2.710521E3,2.895479E3,4.0756284E3,1.8175764E3,1.6010187E3,1.1095024E3,1.9966716E3,8.9880725E2,1.9994697E3,2.0761587E3,1.485295E3,3.322814E2,1.02318005E3,5.778386E2,7.027854E2,4.06717E2,1.581422E3,4.1524966E2,6.470498E2,2.5175746E2,1.242252E3,7.572178E2,1.277898E3,7.9826074E2,1.2258873E3,2.5940768E2,2.4809479E2,8.4186615E1],"tree_param":{"num_deleted":"0","num_feature":"10","num_nodes":"31","size_leaf_vector":"1"}},{"base_weights":[1.6576856E-2,-3.3238047E-1,5.0116986E-1,-6.436872E-1,8.439469E-2,1.4827621E-1,8.930889E-1,-2.7964625E-1,-1.1144694E0,-2.7964625E-1,8.439469E-2,8.439469E-2,5.206826E-1,1.1636146E0,5.206826E-1,-9.787619E-3,-2.4397025E-2,-2.4397025E-2,-4.9267057E-2,-9.787619E-3,-3.4169022E-3,2.9538143E-3,-3.4169022E-3,1.0588852E-2,2.9538143E-3,1.8223891E-2,1.0588852E-2,4.7941715E-2,3.0884556E-2,2.94752E-2,1.8223891E-2],"categories":[],"categories_nodes":[],"categories_segments":[],"categories_sizes":[],"default_left":[0,0,0,0,0,0,0,0,0,0,0,0,0,0,0,0,0,0,0,0,0,0,0,0,0,0,0,0,0,0,0],"id":7,"left_children":[1,3,5,7,9,11,13,15,17,19,21,23,25,27,29,-1,-1,-1,-1,-1,-1,-1,-1,-1,-1,-1,-1,-1,-1,-1,-1],"loss_changes":[1.9507979E3,1.1801206E3,6.671338E2,8.3781055E2,1.2193506E2,3.4756125E2,2.3539221E2,2.367147E2,3.441775E2,6.369937E1,1.38293E1,8.383466E1,2.5343964E1,7.378381E1,9.5839874E1,0E0,0E0,0E0,0E0,0E0,0E0,0E0,0E0,0E0,0E0,0E0,0E0,0E0,0E0,0E0,0E0],"parents":[2147483647,0,0,1,1,2,2,3,3,4,4,5,5,6,6,7,7,8,8,9,9,10,10,11,11,12,12,13,13,14,14],"right_children":[2,4,6,8,10,12,14,16,18,20,22,24,26,28,30,-1,-1,-1,-1,-1,-1,-1,-1,-1,-1,-1,-1,-1,-1,-1,-1],"split_conditions":[3.9045343E-1,9.0464634E-1,3.1459174E-1,6.7086095E-1,2.4634796E-1,9.4750625E-1,6.139872E-1,7.931861E-1,4.723624E-1,1.6961882E0,9.1170883E-1,5.380192E-1,8.2545954E-1,6.7835826E-1,6.2612295E-1,-9.787619E-3,-2.4397025E-2,-2.4397025E-2,-4.9267057E-2,-9.787619E-3,-3.4169022E-3,2.9538143E-3,-3.4169022E-3,1.0588852E-2,2.9538143E-3,1.8223891E-2,1.0588852E-2,4.7941715E-2,3.0884556E-2,2.94752E-2,1.8223891E-2],"split_indices":[0,4,9,3,9,4,2,7,2,4,7,7,3,3,7,0,0,0,0,0,0,0,0,0,0,0,0,0,0,0,0],"split_type":[0,0,0,0,0,0,0,0,0,0,0,0,0,0,0,0,0,0,0,0,0,0,0,0,0,0,0,0,0,0,0],"sum_hessian":[1.1519585E4,6.6963765E3,4.823208E3,4.417293E3,2.2790837E3,2.5414812E3,2.2817268E3,2.3786135E3,2.0386792E3,8.6830115E2,1.4107826E3,1.6643007E3,8.7718066E2,1.3336628E3,9.480639E2,1.6559158E3,7.226978E2,6.5376624E2,1.384913E3,5.359233E2,3.323779E2,1.3068134E3,1.03969215E2,3.5246466E2,1.311836E3,7.473818E2,1.297989E2,7.6076874E2,5.728941E2,3.3350226E2,6.145617E2],"tree_param":{"num_deleted":"0","num_feature":"10","num_nodes":"31","size_leaf_vector":"1"}},{"base_weights":[2.4638608E-2,-1.6138943E-1,9.239292E-1,-5.859904E-1,2.5897086E-1,1.1961226E0,5.317213E-1,-1.6350979E-1,-9.55707E-1,3.812699E-1,-1.6350979E-1,1.4063934E0,8.924905E-1,3.812699E-1,8.63922E-1,-5.7228426E-3,-1.9586295E-2,-4.1873965E-2,-1.9586295E-2,1.3344446E-2,3.810802E-3,3.810802E-3,-5.7228426E-3,5.410407E-2,4.0230468E-2,3.023727E-2,4.0230468E-2,1.3344446E-2,2.1790858E-2,3.023727E-2,2.1790858E-2],"categories":[],"categories_nodes":[],"categories_segments":[],"categories_sizes":[],"default_left":[0,0,0,0,0,0,0,0,0,0,0,0,0,0,0,0,0,0,0,0,0,0,0,0,0,0,0,0,0,0,0],"id":8,"left_children":[1,3,5,7,9,11,13,15,17,19,21,23,25,27,29,-1,-1,-1,-1,-1,-1,-1,-1,-1,-1,-1,-1,-1,-1,-1,-1],"loss_changes":[1.9341604E3,1.7093518E3,2.093114E2,8.271068E2,6.364352E2,7.050232E1,1.03951294E2,1.7219098E2,4.03906E2,1.4612347E2,1.04563416E2,2.1292969E1,3.4485992E1,3.3916313E1,6.612671E0,0E0,0E0,0E0,0E0,0E0,0E0,0E0,0E0,0E0,0E0,0E0,0E0,0E0,0E0,0E0,0E0],"parents":[2147483647,0,0,1,1,2,2,3,3,4,4,5,5,6,6,7,7,8,8,9,9,10,10,11,11,12,12,13,13,14,14],"right_children":[2,4,6,8,10,12,14,16,18,20,22,24,26,28,30,-1,-1,-1,-1,-1,-1,-1,-1,-1,-1,-1,-1,-1,-1,-1,-1],"split_conditions":[1.5056369E0,3.4574896E-1,7.3471296E-1,6.783115E-1,6.741642E-1,6.203084E-1,7.085643E-1,7.532971E-1,8.378983E-1,1.0679607E0,6.062607E-1,1.0521752E0,2.2264745E0,4.635332E-1,8.379528E-1,-5.7228426E-3,-1.9586295E-2,-4.1873965E-2,-1.9586295E-2,1.3344446E-2,3.810802E-3,3.810802E-3,-5.7228426E-3,5.410407E-2,4.0230468E-2,3.023727E-2,4.0230468E-2,1.3344446E-2,2.1790858E-2,3.023727E-2,2.1790858E-2],"split_indices":[4,0,7,7,2,2,1,2,1,6,7,6,4,0,2,0,0,0,0,0,0,0,0,0,0,0,0,0,0,0,0],"split_type":[0,0,0,0,0,0,0,0,0,0,0,0,0,0,0,0,0,0,0,0,0,0,0,0,0,0,0,0,0,0,0],"sum_hessian":[1.1538584E4,9.561941E3,1.976642E3,4.7575713E3,4.80437E3,1.1617118E3,8.1493024E2,2.0897236E3,2.667848E3,3.2655886E3,1.5387816E3,6.779973E2,4.8371442E2,5.551373E2,2.597929E2,1.6454781E3,4.442454E2,2.0275796E3,6.402683E2,2.1929368E3,1.0726519E3,4.6057983E2,1.0782018E3,4.4212567E2,2.3587163E2,2.72416E2,2.1129845E2,3.9089984E2,1.6423749E2,2.4048016E2,1.9312727E1],"tree_param":{"num_deleted":"0","num_feature":"10","num_nodes":"31","size_leaf_vector":"1"}},{"base_weights":[3.839411E-2,-1.7080168E-1,8.1019E-1,-4.7998896E-1,3.1969416E-1,1.0886608E0,4.173578E-1,-1.0538696E-1,-9.568971E-1,3.1969416E-1,-8.01474E-2,1.3007478E0,7.530093E-1,3.1969416E-1,7.530093E-1,-1.858997E-2,-2.805159E-3,-1.858997E-2,-4.4666994E-2,1.1189296E-2,4.1920682E-3,4.1920682E-3,-2.805159E-3,3.594075E-2,5.0882116E-2,2.6355326E-2,3.594075E-2,1.1189296E-2,1.8772312E-2,2.6355326E-2,1.8772312E-2],"categories":[],"categories_nodes":[],"categories_segments":[],"categories_sizes":[],"default_left":[0,0,0,0,0,0,0,0,0,0,0,0,0,0,0,0,0,0,0,0,0,0,0,0,0,0,0,0,0,0,0],"id":9,"left_children":[1,3,5,7,9,11,13,15,17,19,21,23,25,27,29,-1,-1,-1,-1,-1,-1,-1,-1,-1,-1,-1,-1,-1,-1,-1,-1],"loss_changes":[1.8623455E3,1.5541304E3,2.6734497E2,1.0429464E3,2.2196677E2,1.1702319E2,1.412499E2,4.1950177E2,3.6183228E2,2.5911499E1,9.5316734E1,4.6083496E1,2.837967E1,3.2999584E1,1.741391E1,0E0,0E0,0E0,0E0,0E0,0E0,0E0,0E0,0E0,0E0,0E0,0E0,0E0,0E0,0E0,0E0],"parents":[2147483647,0,0,1,1,2,2,3,3,4,4,5,5,6,6,7,7,8,8,9,9,10,10,11,11,12,12,13,13,14,14],"right_children":[2,4,6,8,10,12,14,16,18,20,22,24,26,28,30,-1,-1,-1,-1,-1,-1,-1,-1,-1,-1,-1,-1,-1,-1,-1,-1],"split_conditions":[9.3885124E-1,4.245754E-1,6.8208104E-1,6.139872E-1,7.464355E-1,7.639711E-1,1.5797734E0,2.8625533E-1,6.1948216E-1,8.632247E-1,4.9941483E-1,2.1039084E-1,4.940407E-1,5.068114E-1,8.3919203E-1,-1.858997E-2,-2.805159E-3,-1.858997E-2,-4.4666994E-2,1.1189296E-2,4.1920682E-3,4.1920682E-3,-2.805159E-3,3.594075E-2,5.0882116E-2,2.6355326E-2,3.594075E-2,1.1189296E-2,1.8772312E-2,2.6355326E-2,1.8772312E-2],"split_indices":[1,0,3,2,7,7,1,9,3,3,2,9,0,0,7,0,0,0,0,0,0,0,0,0,0,0,0,0,0,0,0],"split_type":[0,0,0,0,0,0,0,0,0,0,0,0,0,0,0,0,0,0,0,0,0,0,0,0,0,0,0,0,0,0,0],"sum_hessian":[1.1513454E4,9.059036E3,2.4544175E3,5.83603E3,3.2230066E3,1.4316735E3,1.022744E3,3.2718306E3,2.5641992E3,1.9304265E3,1.2925802E3,9.3005566E2,5.0161777E2,6.5384296E2,3.6890103E2,1.5167052E3,1.7551254E3,1.076706E3,1.487493E3,1.7408809E3,1.8954564E2,5.0784247E2,7.8473773E2,2.804882E2,6.4956744E2,3.6988806E2,1.3172972E2,4.9089603E2,1.6294693E2,3.15179E2,5.3722054E1],"tree_param":{"num_deleted":"0","num_feature":"10","num_nodes":"31","size_leaf_vector":"1"}},{"base_weights":[2.3721317E-2,-3.7869662E-1,4.0149656E-1,-6.885279E-1,1.1399969E-2,7.208944E-1,1.1399969E-2,-9.8486096E-1,-3.3856395E-1,1.1399969E-2,-3.3856395E-1,3.661472E-1,1.0060369E0,1.1399969E-2,3.661472E-1,-2.3159936E-2,-4.411957E-2,-1.1849739E-2,-2.3159936E-2,3.9899893E-4,-5.72537E-3,-1.1849739E-2,-5.72537E-3,1.2815151E-2,2.4013221E-2,4.369373E-2,2.4013221E-2,6.607075E-3,3.9899893E-4,1.2815151E-2,6.607075E-3],"categories":[],"categories_nodes":[],"categories_segments":[],"categories_sizes":[],"default_left":[0,0,0,0,0,0,0,0,0,0,0,0,0,0,0,0,0,0,0,0,0,0,0,0,0,0,0,0,0,0,0],"id":10,"left_children":[1,3,5,7,9,11,13,15,17,19,21,23,25,27,29,-1,-1,-1,-1,-1,-1,-1,-1,-1,-1,-1,-1,-1,-1,-1,-1],"loss_changes":[1.7466704E3,9.300222E2,8.183838E2,4.9388635E2,1.1102615E2,3.7807642E2,2.698909E2,2.7810474E2,1.0655591E2,1.913784E1,3.820868E1,1.20951706E2,1.5650977E2,4.9835793E1,2.269284E1,0E0,0E0,0E0,0E0,0E0,0E0,0E0,0E0,0E0,0E0,0E0,0E0,0E0,0E0,0E0,0E0],"parents":[2147483647,0,0,1,1,2,2,3,3,4,4,5,5,6,6,7,7,8,8,9,9,10,10,11,11,12,12,13,13,14,14],"right_children":[2,4,6,8,10,12,14,16,18,20,22,24,26,28,30,-1,-1,-1,-1,-1,-1,-1,-1,-1,-1,-1,-1,-1,-1,-1,-1],"split_conditions":[2.895978E-1,9.0464634E-1,6.139872E-1,4.0136993E-1,7.655942E-1,3.200384E-1,9.76563E-1,5.8633584E-1,8.282168E-1,1.2425339E0,4.6587247E-1,1.4593407E0,7.361954E-1,4.3548727E-1,7.836166E-1,-2.3159936E-2,-4.411957E-2,-1.1849739E-2,-2.3159936E-2,3.9899893E-4,-5.72537E-3,-1.1849739E-2,-5.72537E-3,1.2815151E-2,2.4013221E-2,4.369373E-2,2.4013221E-2,6.607075E-3,3.9899893E-4,1.2815151E-2,6.607075E-3],"split_indices":[9,4,2,0,7,0,4,3,7,6,0,4,7,3,3,0,0,0,0,0,0,0,0,0,0,0,0,0,0,0,0],"split_type":[0,0,0,0,0,0,0,0,0,0,0,0,0,0,0,0,0,0,0,0,0,0,0,0,0,0,0,0,0,0,0],"sum_hessian":[1.147337E4,5.5542046E3,5.9191655E3,3.6203442E3,1.9338601E3,3.4118062E3,2.5073594E3,2.241208E3,1.3791362E3,1.2712205E3,6.626396E2,1.4423322E3,1.969474E3,1.6603625E3,8.4699695E2,8.131054E2,1.4281027E3,1.0811082E3,2.98028E2,1.1132914E3,1.5792912E2,4.682188E2,1.9442079E2,1.1588639E3,2.8346826E2,1.1335267E3,8.3594727E2,2.675841E2,1.3927784E3,6.6606E2,1.8093695E2],"tree_param":{"num_deleted":"0","num_feature":"10","num_nodes":"31","size_leaf_vector":"1"}},{"base_weights":[3.8655695E-2,-2.9004872E-1,5.006449E-1,7.897737E-2,-7.3320967E-1,1.052981E-1,8.0751103E-1,1.052981E-1,-3.2711616E-1,-3.2711616E-1,-1.0176044E0,1.052981E-1,4.5640457E-1,1.1678337E0,5.390459E-1,-3.881816E-3,3.6854337E-3,-3.881816E-3,-1.1449066E-2,-2.3532609E-2,-1.1449066E-2,-2.3532609E-2,-4.3646704E-2,9.829797E-3,3.6854337E-3,1.597416E-2,9.829797E-3,4.668898E-2,3.1770404E-2,2.9870393E-2,1.597416E-2],"categories":[],"categories_nodes":[],"categories_segments":[],"categories_sizes":[],"default_left":[0,0,0,0,0,0,0,0,0,0,0,0,0,0,0,0,0,0,0,0,0,0,0,0,0,0,0,0,0,0,0],"id":11,"left_children":[1,3,5,7,9,11,13,15,17,19,21,23,25,27,29,-1,-1,-1,-1,-1,-1,-1,-1,-1,-1,-1,-1,-1,-1,-1,-1],"loss_changes":[1.749544E3,1.1014768E3,5.8125635E2,3.9525864E2,4.7877112E2,2.0606107E2,2.5886194E2,6.3306015E1,8.3515915E1,6.837404E1,2.416477E2,5.3400352E1,1.2942078E1,4.580957E1,1.6293137E2,0E0,0E0,0E0,0E0,0E0,0E0,0E0,0E0,0E0,0E0,0E0,0E0,0E0,0E0,0E0,0E0],"parents":[2147483647,0,0,1,1,2,2,3,3,4,4,5,5,6,6,7,7,8,8,9,9,10,10,11,11,12,12,13,13,14,14],"right_children":[2,4,6,8,10,12,14,16,18,20,22,24,26,28,30,-1,-1,-1,-1,-1,-1,-1,-1,-1,-1,-1,-1,-1,-1,-1,-1],"split_conditions":[7.490509E-1,6.033026E-1,2.732726E-1,7.0744365E-1,6.2149E-1,1.7654798E0,6.6502726E-1,2.3492329E-1,5.50824E-1,2.6921302E-1,5.324031E-1,5.7155955E-1,8.2160735E-1,7.0559704E-1,6.022931E-1,-3.881816E-3,3.6854337E-3,-3.881816E-3,-1.1449066E-2,-2.3532609E-2,-1.1449066E-2,-2.3532609E-2,-4.3646704E-2,9.829797E-3,3.6854337E-3,1.597416E-2,9.829797E-3,4.668898E-2,3.1770404E-2,2.9870393E-2,1.597416E-2],"split_indices":[4,2,9,3,7,4,7,0,7,0,3,7,2,3,3,0,0,0,0,0,0,0,0,0,0,0,0,0,0,0,0],"split_type":[0,0,0,0,0,0,0,0,0,0,0,0,0,0,0,0,0,0,0,0,0,0,0,0,0,0,0,0,0,0,0],"sum_hessian":[1.1503768E4,6.720849E3,4.7829185E3,3.6672715E3,3.0535774E3,2.0913281E3,2.6915906E3,2.2662063E3,1.4010653E3,9.9566394E2,2.0579136E3,1.4738497E3,6.1747833E2,1.1433114E3,1.5482793E3,5.715631E2,1.6946431E3,3.2051126E2,1.0805541E3,3.2650543E2,6.691585E2,5.8273883E2,1.4751747E3,3.853117E2,1.0885381E3,5.612513E2,5.622705E1,6.877796E2,4.555318E2,6.605088E2,8.877705E2],"tree_param":{"num_deleted":"0","num_feature":"10","num_nodes":"31","size_leaf_vector":"1"}},{"base_weights":[3.1149035E-2,-2.2800592E-1,6.0469997E-1,-5.4454625E-1,1.8834703E-1,1.9668844E-1,9.136899E-1,-1.780996E-1,-8.9941317E-1,1.8834703E-1,-1.780996E-1,1.8834703E-1,5.551892E-1,1.1753024E0,5.551892E-1,-6.233486E-3,-1.8856473E-2,-4.165716E-2,-1.8856473E-2,6.592146E-3,1.7932993E-4,-6.233486E-3,1.7932993E-4,6.592146E-3,1.3011884E-2,1.3011884E-2,1.9431623E-2,4.803479E-2,3.0283604E-2,1.9431623E-2,3.0283604E-2],"categories":[],"categories_nodes":[],"categories_segments":[],"categories_sizes":[],"default_left":[0,0,0,0,0,0,0,0,0,0,0,0,0,0,0,0,0,0,0,0,0,0,0,0,0,0,0,0,0,0,0],"id":12,"left_children":[1,3,5,7,9,11,13,15,17,19,21,23,25,27,29,-1,-1,-1,-1,-1,-1,-1,-1,-1,-1,-1,-1,-1,-1,-1,-1],"loss_changes":[1.7109113E3,1.3331074E3,4.506129E2,8.0755164E2,1.6935492E2,1.5545876E2,1.9468665E2,1.4759332E2,3.588723E2,2.8154083E1,6.696511E1,3.1883667E1,2.253189E1,8.14563E1,6.7781555E1,0E0,0E0,0E0,0E0,0E0,0E0,0E0,0E0,0E0,0E0,0E0,0E0,0E0,0E0,0E0,0E0],"parents":[2147483647,0,0,1,1,2,2,3,3,4,4,5,5,6,6,7,7,8,8,9,9,10,10,11,11,12,12,13,13,14,14],"right_children":[2,4,6,8,10,12,14,16,18,20,22,24,26,28,30,-1,-1,-1,-1,-1,-1,-1,-1,-1,-1,-1,-1,-1,-1,-1,-1],"split_conditions":[7.085643E-1,4.2225033E-1,2.7156714E-1,6.7641777E-1,1.0751342E0,1.2824762E0,6.8208104E-1,7.163917E-1,3.37729E-1,8.5974324E-1,9.76563E-1,1.6065861E0,2.3127581E-1,7.639711E-1,4.5269465E-1,-6.233486E-3,-1.8856473E-2,-4.165716E-2,-1.8856473E-2,6.592146E-3,1.7932993E-4,-6.233486E-3,1.7932993E-4,6.592146E-3,1.3011884E-2,1.3011884E-2,1.9431623E-2,4.803479E-2,3.0283604E-2,1.9431623E-2,3.0283604E-2],"split_indices":[1,0,9,7,6,1,3,3,9,7,4,4,0,7,0,0,0,0,0,0,0,0,0,0,0,0,0,0,0,0,0],"split_type":[0,0,0,0,0,0,0,0,0,0,0,0,0,0,0,0,0,0,0,0,0,0,0,0,0,0,0,0,0,0,0],"sum_hessian":[1.1491446E4,7.915119E3,3.5763271E3,5.033345E3,2.8817742E3,1.5447195E3,2.0316075E3,2.1855803E3,2.847765E3,1.9874086E3,8.943656E2,9.2686444E2,6.1785504E2,1.1843441E3,8.472635E2,1.388388E3,7.9719244E2,1.7170645E3,1.1307003E3,1.6799763E3,3.0743225E2,5.793769E2,3.149887E2,7.877905E2,1.3907388E2,1.5569745E2,4.621576E2,7.646185E2,4.1972556E2,5.541647E2,2.9309885E2],"tree_param":{"num_deleted":"0","num_feature":"10","num_nodes":"31","size_leaf_vector":"1"}},{"base_weights":[3.1087708E-2,-1.6546664E-1,7.5346214E-1,2.9399776E-1,-4.8769325E-1,1.0839411E0,4.8110935E-1,-9.684774E-2,2.9399776E-1,-9.342453E-1,-1.3824348E-1,1.2899681E0,7.8252524E-1,2.9399776E-1,7.8252524E-1,-3.389671E-3,3.4501255E-3,1.0289921E-2,3.4501255E-3,-3.990138E-2,-1.8768555E-2,-1.8768555E-2,-3.389671E-3,3.6268633E-2,5.062671E-2,2.7388383E-2,3.6268633E-2,1.0289921E-2,1.8839154E-2,1.8839154E-2,2.7388383E-2],"categories":[],"categories_nodes":[],"categories_segments":[],"categories_sizes":[],"default_left":[0,0,0,0,0,0,0,0,0,0,0,0,0,0,0,0,0,0,0,0,0,0,0,0,0,0,0,0,0,0,0],"id":13,"left_children":[1,3,5,7,9,11,13,15,17,19,21,23,25,27,29,-1,-1,-1,-1,-1,-1,-1,-1,-1,-1,-1,-1,-1,-1,-1,-1],"loss_changes":[1.6280513E3,1.4924073E3,2.1901868E2,2.9298846E2,8.659519E2,6.966797E1,1.6088867E2,4.270602E1,5.2334595E1,3.245774E2,3.598846E2,2.732251E1,2.8492065E1,3.305464E1,3.292444E1,0E0,0E0,0E0,0E0,0E0,0E0,0E0,0E0,0E0,0E0,0E0,0E0,0E0,0E0,0E0,0E0],"parents":[2147483647,0,0,1,1,2,2,3,3,4,4,5,5,6,6,7,7,8,8,9,9,10,10,11,11,12,12,13,13,14,14],"right_children":[2,4,6,8,10,12,14,16,18,20,22,24,26,28,30,-1,-1,-1,-1,-1,-1,-1,-1,-1,-1,-1,-1,-1,-1,-1,-1],"split_conditions":[9.3885124E-1,6.465583E-1,5.4343957E-1,2.3812726E-1,2.680228E-1,7.5597906E-1,6.1869407E-1,4.2697585E-1,7.577079E-1,1.3304516E0,2.784223E-1,2.2724131E-1,4.4425714E-1,1.7321262E0,1.811227E-1,-3.389671E-3,3.4501255E-3,1.0289921E-2,3.4501255E-3,-3.990138E-2,-1.8768555E-2,-1.8768555E-2,-3.389671E-3,3.6268633E-2,5.062671E-2,2.7388383E-2,3.6268633E-2,1.0289921E-2,1.8839154E-2,1.8839154E-2,2.7388383E-2],"split_indices":[1,7,2,0,9,7,4,9,2,4,0,9,0,1,9,0,0,0,0,0,0,0,0,0,0,0,0,0,0,0,0],"split_type":[0,0,0,0,0,0,0,0,0,0,0,0,0,0,0,0,0,0,0,0,0,0,0,0,0,0,0,0,0,0,0],"sum_hessian":[1.1444014E4,8.996925E3,2.4470884E3,3.448783E3,5.548142E3,1.0998699E3,1.3472184E3,8.932725E2,2.5555105E3,2.4322087E3,3.1159336E3,6.622099E2,4.3765997E2,6.3105554E2,7.161629E2,6.654837E2,2.2778882E2,2.0644878E3,4.910226E2,1.9466389E3,4.8556976E2,1.0794733E3,2.0364602E3,2.311146E2,4.3109528E2,2.7827747E2,1.593825E2,4.550308E2,1.7602472E2,1.6230484E2,5.538581E2],"tree_param":{"num_deleted":"0","num_feature":"10","num_nodes":"31","size_leaf_vector":"1"}},{"base_weights":[2.4187755E-2,-2.9634613E-1,4.607023E-1,6.617594E-2,-7.350823E-1,8.2178086E-2,7.516689E-1,8.2178086E-2,-3.344532E-1,-3.344532E-1,-1.0306829E0,8.2178086E-2,4.1692346E-1,1.0947605E0,5.012123E-1,-4.4148145E-3,2.876233E-3,-1.1705861E-2,-4.4148145E-3,-1.1705861E-2,-2.3889882E-2,-4.2911068E-2,-2.3889882E-2,8.734277E-3,2.876233E-3,1.4592322E-2,8.734277E-3,4.423192E-2,2.8992742E-2,1.4592322E-2,2.7929524E-2],"categories":[],"categories_nodes":[],"categories_segments":[],"categories_sizes":[],"default_left":[0,0,0,0,0,0,0,0,0,0,0,0,0,0,0,0,0,0,0,0,0,0,0,0,0,0,0,0,0,0,0],"id":14,"left_children":[1,3,5,7,9,11,13,15,17,19,21,23,25,27,29,-1,-1,-1,-1,-1,-1,-1,-1,-1,-1,-1,-1,-1,-1,-1,-1],"loss_changes":[1.5961848E3,1.0467891E3,5.343844E2,3.2237698E2,4.3356042E2,1.8577147E2,2.3336548E2,7.758884E1,5.732132E1,9.215196E1,1.8951453E2,5.538954E1,1.0926559E1,4.8510742E1,1.5373465E2,0E0,0E0,0E0,0E0,0E0,0E0,0E0,0E0,0E0,0E0,0E0,0E0,0E0,0E0,0E0,0E0],"parents":[2147483647,0,0,1,1,2,2,3,3,4,4,5,5,6,6,7,7,8,8,9,9,10,10,11,11,12,12,13,13,14,14],"right_children":[2,4,6,8,10,12,14,16,18,20,22,24,26,28,30,-1,-1,-1,-1,-1,-1,-1,-1,-1,-1,-1,-1,-1,-1,-1,-1],"split_conditions":[7.416588E-1,6.033026E-1,2.69779E-1,1.1137027E0,6.465583E-1,1.835507E0,6.6502726E-1,1.69459E-1,8.064839E-1,1.0829958E0,7.8404385E-1,4.1615105E-1,8.436789E-1,1.0201213E0,5.261938E-1,-4.4148145E-3,2.876233E-3,-1.1705861E-2,-4.4148145E-3,-1.1705861E-2,-2.3889882E-2,-4.2911068E-2,-2.3889882E-2,8.734277E-3,2.876233E-3,1.4592322E-2,8.734277E-3,4.423192E-2,2.8992742E-2,1.4592322E-2,2.7929524E-2],"split_indices":[4,2,9,6,7,4,7,9,1,6,1,2,2,6,1,0,0,0,0,0,0,0,0,0,0,0,0,0,0,0,0],"split_type":[0,0,0,0,0,0,0,0,0,0,0,0,0,0,0,0,0,0,0,0,0,0,0,0,0,0,0,0,0,0,0],"sum_hessian":[1.1390448E4,6.5669736E3,4.823475E3,3.5959524E3,2.9710212E3,2.09262E3,2.730855E3,2.6296233E3,9.663291E2,1.0953773E3,1.8756438E3,1.5229078E3,5.697124E2,1.1463729E3,1.584482E3,5.656446E2,2.0639788E3,7.1069745E2,2.5563165E2,7.620093E2,3.3336804E2,1.412884E3,4.6275974E2,3.8469315E2,1.1382147E3,5.3196344E2,3.7749004E1,6.9222345E2,4.5414948E2,8.553168E2,7.291653E2],"tree_param":{"num_deleted":"0","num_feature":"10","num_nodes":"31","size_leaf_vector":"1"}},{"base_weights":[3.0526755E-2,-1.4044145E-1,8.359984E-1,2.6179674E-1,-5.188276E-1,3.5523784E-1,1.0206642E0,-1.2851544E-1,3.477785E-1,-8.27651E-1,-1.2851544E-1,6.87951E-1,3.477785E-1,1.2121105E0,6.87951E-1,-4.4980403E-3,3.8371035E-3,1.2172247E-2,3.8371035E-3,-3.999875E-2,-1.6732913E-2,-4.4980403E-3,-1.6732913E-2,1.8125268E-2,2.4078285E-2,1.8125268E-2,1.2172247E-2,3.3251077E-2,4.798147E-2,3.3251077E-2,2.4078285E-2],"categories":[],"categories_nodes":[],"categories_segments":[],"categories_sizes":[],"default_left":[0,0,0,0,0,0,0,0,0,0,0,0,0,0,0,0,0,0,0,0,0,0,0,0,0,0,0,0,0,0,0],"id":15,"left_children":[1,3,5,7,9,11,13,15,17,19,21,23,25,27,29,-1,-1,-1,-1,-1,-1,-1,-1,-1,-1,-1,-1,-1,-1,-1,-1],"loss_changes":[1.5770321E3,1.437299E3,1.7642993E2,5.095381E2,7.118812E2,6.2721817E1,1.0551428E2,1.3171614E2,9.896271E1,3.9387903E2,1.378052E2,9.05191E0,8.715691E0,4.459204E1,2.7680588E1,0E0,0E0,0E0,0E0,0E0,0E0,0E0,0E0,0E0,0E0,0E0,0E0,0E0,0E0,0E0,0E0],"parents":[2147483647,0,0,1,1,2,2,3,3,4,4,5,5,6,6,7,7,8,8,9,9,10,10,11,11,12,12,13,13,14,14],"right_children":[2,4,6,8,10,12,14,16,18,20,22,24,26,28,30,-1,-1,-1,-1,-1,-1,-1,-1,-1,-1,-1,-1,-1,-1,-1,-1],"split_conditions":[1.068148E0,6.424496E-1,2.4923621E-1,2.9376695E-1,4.0362155E-1,6.7641777E-1,1.0653358E0,4.2697585E-1,1.2267369E0,3.2779646E-1,7.195688E-1,1.9919235E-1,6.4266795E-1,2.739527E-1,6.1662185E-1,-4.4980403E-3,3.8371035E-3,1.2172247E-2,3.8371035E-3,-3.999875E-2,-1.6732913E-2,-4.4980403E-3,-1.6732913E-2,1.8125268E-2,2.4078285E-2,1.8125268E-2,1.2172247E-2,3.3251077E-2,4.798147E-2,3.3251077E-2,2.4078285E-2],"split_indices":[1,3,0,0,0,7,6,9,6,9,7,9,6,5,7,0,0,0,0,0,0,0,0,0,0,0,0,0,0,0,0],"split_type":[0,0,0,0,0,0,0,0,0,0,0,0,0,0,0,0,0,0,0,0,0,0,0,0,0,0,0,0,0,0,0],"sum_hessian":[1.1427483E4,9.427626E3,1.9998583E3,4.5689487E3,4.858677E3,5.5892737E2,1.4409309E3,1.7314366E3,2.8375122E3,2.9675117E3,1.8911649E3,2.753365E2,2.835909E2,9.666016E2,4.7432925E2,1.2615913E3,4.6984537E2,2.4502607E3,3.8725137E2,1.7099739E3,1.2575378E3,1.0247767E3,8.6638824E2,8.5503174E1,1.8983331E2,3.2883213E1,2.5070769E2,3.283786E2,6.38223E2,1.663523E2,3.0797696E2],"tree_param":{"num_deleted":"0","num_feature":"10","num_nodes":"31","size_leaf_vector":"1"}},{"base_weights":[1.7318992E-2,5.032138E-1,-2.681873E-1,8.1799585E-1,1.17513254E-1,-5.8081436E-1,1.17513254E-1,1.1555084E0,5.068933E-1,1.17513254E-1,4.6775454E-1,-9.1336703E-1,-2.3165056E-1,1.17513254E-1,-2.3165056E-1,2.9092029E-2,4.666662E-2,1.6371408E-2,2.9092029E-2,4.112964E-3,1.02421865E-2,1.6371408E-2,1.02421865E-2,-4.086712E-2,-2.003781E-2,-8.107769E-3,-2.003781E-2,-1.9974029E-3,4.112964E-3,-1.9974029E-3,-8.107769E-3],"categories":[],"categories_nodes":[],"categories_segments":[],"categories_sizes":[],"default_left":[0,0,0,0,0,0,0,0,0,0,0,0,0,0,0,0,0,0,0,0,0,0,0,0,0,0,0,0,0,0,0],"id":16,"left_children":[1,3,5,7,9,11,13,15,17,19,21,23,25,27,29,-1,-1,-1,-1,-1,-1,-1,-1,-1,-1,-1,-1,-1,-1,-1,-1],"loss_changes":[1.5743595E3,5.472119E2,1.0465599E3,2.4884998E2,1.5896184E2,6.414734E2,1.4985728E2,6.404968E1,1.0818387E2,4.0370125E1,1.6104004E1,2.9702002E2,1.1407192E2,2.4552536E1,5.6990158E1,0E0,0E0,0E0,0E0,0E0,0E0,0E0,0E0,0E0,0E0,0E0,0E0,0E0,0E0,0E0,0E0],"parents":[2147483647,0,0,1,1,2,2,3,3,4,4,5,5,6,6,7,7,8,8,9,9,10,10,11,11,12,12,13,13,14,14],"right_children":[2,4,6,8,10,12,14,16,18,20,22,24,26,28,30,-1,-1,-1,-1,-1,-1,-1,-1,-1,-1,-1,-1,-1,-1,-1,-1],"split_conditions":[5.7934016E-1,1.0053029E0,4.0362155E-1,6.8878746E-1,9.989007E-1,7.323113E-1,1.0751342E0,2.8017122E-1,3.37729E-1,9.031256E-1,7.9648834E-1,3.6896232E-1,1.1732719E0,1.03912674E-1,6.139836E-1,2.9092029E-2,4.666662E-2,1.6371408E-2,2.9092029E-2,4.112964E-3,1.02421865E-2,1.6371408E-2,1.02421865E-2,-4.086712E-2,-2.003781E-2,-8.107769E-3,-2.003781E-2,-1.9974029E-3,4.112964E-3,-1.9974029E-3,-8.107769E-3],"split_indices":[3,6,0,7,4,4,6,0,9,1,7,9,6,9,7,0,0,0,0,0,0,0,0,0,0,0,0,0,0,0,0],"split_type":[0,0,0,0,0,0,0,0,0,0,0,0,0,0,0,0,0,0,0,0,0,0,0,0,0,0,0,0,0,0,0],"sum_hessian":[1.133021E4,4.1939185E3,7.1362915E3,2.3834592E3,1.8104592E3,4.319779E3,2.816513E3,1.1377582E3,1.245701E3,1.2247943E3,5.856649E2,2.5102095E3,1.8095692E3,1.910116E3,9.063971E2,4.0406552E2,7.3369257E2,7.1364526E2,5.320558E2,9.216533E2,3.0314105E2,4.1766043E2,1.680045E2,1.6614196E3,8.487898E2,1.4669081E3,3.4266113E2,1.7635774E2,1.7337582E3,2.9042453E2,6.1597253E2],"tree_param":{"num_deleted":"0","num_feature":"10","num_nodes":"31","size_leaf_vector":"1"}},{"base_weights":[2.2897104E-2,-4.023471E-1,3.4012195E-1,-7.514498E-1,-3.1112567E-2,6.362106E-1,-3.1112567E-2,-3.912812E-1,-1.0455306E0,-3.912812E-1,-3.1112567E-2,8.818386E-1,3.0254903E-1,-3.1112567E-2,3.0254903E-1,-1.3694841E-2,-2.5144204E-2,-4.5294773E-2,-2.5144204E-2,-1.3694841E-2,-7.3918905E-3,-1.0889398E-3,-7.3918905E-3,3.671685E-2,2.0726785E-2,1.0589216E-2,2.0726785E-2,-1.0889398E-3,4.750138E-3,1.0589216E-2,4.750138E-3],"categories":[],"categories_nodes":[],"categories_segments":[],"categories_sizes":[],"default_left":[0,0,0,0,0,0,0,0,0,0,0,0,0,0,0,0,0,0,0,0,0,0,0,0,0,0,0,0,0,0,0],"id":17,"left_children":[1,3,5,7,9,11,13,15,17,19,21,23,25,27,29,-1,-1,-1,-1,-1,-1,-1,-1,-1,-1,-1,-1,-1,-1,-1,-1],"loss_changes":[1.5272874E3,7.20551E2,7.3421497E2,3.329679E2,1.5463719E2,3.262428E2,2.2997507E2,8.090456E1,1.6241028E2,4.33107E1,3.0398834E1,1.1727368E2,1.1004451E2,6.2459732E1,3.1201462E1,0E0,0E0,0E0,0E0,0E0,0E0,0E0,0E0,0E0,0E0,0E0,0E0,0E0,0E0,0E0,0E0],"parents":[2147483647,0,0,1,1,2,2,3,3,4,4,5,5,6,6,7,7,8,8,9,9,10,10,11,11,12,12,13,13,14,14],"right_children":[2,4,6,8,10,12,14,16,18,20,22,24,26,28,30,-1,-1,-1,-1,-1,-1,-1,-1,-1,-1,-1,-1,-1,-1,-1,-1],"split_conditions":[3.1467816E-1,4.8346695E-1,7.3471296E-1,6.6704977E-1,3.513288E-1,6.224779E-1,7.085643E-1,6.9437826E-1,3.9559284E-1,4.8267192E-1,1.2227665E0,1.0679607E0,1.168448E0,1.482446E0,1.1331323E0,-1.3694841E-2,-2.5144204E-2,-4.5294773E-2,-2.5144204E-2,-1.3694841E-2,-7.3918905E-3,-1.0889398E-3,-7.3918905E-3,3.671685E-2,2.0726785E-2,1.0589216E-2,2.0726785E-2,-1.0889398E-3,4.750138E-3,1.0589216E-2,4.750138E-3],"split_indices":[0,1,7,7,4,2,1,2,5,5,6,6,4,4,6,0,0,0,0,0,0,0,0,0,0,0,0,0,0,0,0],"split_type":[0,0,0,0,0,0,0,0,0,0,0,0,0,0,0,0,0,0,0,0,0,0,0,0,0,0,0,0,0,0,0],"sum_hessian":[1.1305541E4,4.8286772E3,6.476864E3,2.6675952E3,2.1610818E3,3.649762E3,2.8271018E3,1.0836664E3,1.5839287E3,7.056883E2,1.4553936E3,2.180372E3,1.4693899E3,1.9399492E3,8.8715265E2,7.614603E2,3.2220605E2,1.0024718E3,5.814569E2,5.297746E2,1.7591374E2,1.2467522E3,2.0864143E2,1.4399053E3,7.4046674E2,1.0573033E3,4.1208664E2,1.6023495E3,3.375997E2,6.8011774E2,2.0703494E2],"tree_param":{"num_deleted":"0","num_feature":"10","num_nodes":"31","size_leaf_vector":"1"}},{"base_weights":[3.2758813E-2,-1.6012885E-1,6.8871146E-1,2.6429132E-1,-4.5179048E-1,4.5658177E-1,1.0666313E0,2.6429132E-1,-9.374958E-2,-7.7228194E-1,-9.374958E-2,7.616066E-1,2.6429132E-1,1.2510978E0,7.616066E-1,9.250196E-3,2.9844802E-3,-3.2812355E-3,2.9844802E-3,-3.5821877E-2,-1.5155552E-2,-3.2812355E-3,-1.5155552E-2,2.665623E-2,1.7953213E-2,9.250196E-3,1.7953213E-2,4.8961997E-2,3.5222325E-2,2.665623E-2,3.5222325E-2],"categories":[],"categories_nodes":[],"categories_segments":[],"categories_sizes":[],"default_left":[0,0,0,0,0,0,0,0,0,0,0,0,0,0,0,0,0,0,0,0,0,0,0,0,0,0,0,0,0,0,0],"id":18,"left_children":[1,3,5,7,9,11,13,15,17,19,21,23,25,27,29,-1,-1,-1,-1,-1,-1,-1,-1,-1,-1,-1,-1,-1,-1,-1,-1],"loss_changes":[1.4386174E3,1.2874629E3,2.2510645E2,2.2660367E2,7.935083E2,1.6797171E2,6.538367E1,4.3830505E1,4.98516E1,4.0128955E2,1.5675334E2,5.230725E1,3.8866447E1,2.7518555E1,1.1431946E1,0E0,0E0,0E0,0E0,0E0,0E0,0E0,0E0,0E0,0E0,0E0,0E0,0E0,0E0,0E0,0E0],"parents":[2147483647,0,0,1,1,2,2,3,3,4,4,5,5,6,6,7,7,8,8,9,9,10,10,11,11,12,12,13,13,14,14],"right_children":[2,4,6,8,10,12,14,16,18,20,22,24,26,28,30,-1,-1,-1,-1,-1,-1,-1,-1,-1,-1,-1,-1,-1,-1,-1,-1],"split_conditions":[9.031256E-1,5.745268E-1,1.4904982E0,6.8070745E-1,7.416588E-1,6.7260367E-1,7.722043E-1,1.2425339E0,1.168448E0,4.4425714E-1,6.559905E-1,7.736336E-1,5.068114E-1,6.920595E-1,4.193854E-1,9.250196E-3,2.9844802E-3,-3.2812355E-3,2.9844802E-3,-3.5821877E-2,-1.5155552E-2,-3.2812355E-3,-1.5155552E-2,2.665623E-2,1.7953213E-2,9.250196E-3,1.7953213E-2,4.8961997E-2,3.5222325E-2,2.665623E-2,3.5222325E-2],"split_indices":[1,3,1,2,4,3,7,6,4,0,2,7,0,2,0,0,0,0,0,0,0,0,0,0,0,0,0,0,0,0,0],"split_type":[0,0,0,0,0,0,0,0,0,0,0,0,0,0,0,0,0,0,0,0,0,0,0,0,0,0,0,0,0,0,0],"sum_hessian":[1.1347515E4,8.769517E3,2.5779973E3,3.1807568E3,5.5887603E3,1.6027875E3,9.752098E2,2.2200388E3,9.607181E2,3.276104E3,2.312656E3,8.939484E2,7.0883905E2,6.554572E2,3.1975253E2,1.9495254E3,2.705135E2,7.0663715E2,2.5408095E2,2.2306965E3,1.0454073E3,1.4837017E3,8.289544E2,5.8635333E2,3.075951E2,5.3155927E2,1.7727979E2,4.4930942E2,2.0614778E2,1.9085443E2,1.2889812E2],"tree_param":{"num_deleted":"0","num_feature":"10","num_nodes":"31","size_leaf_vector":"1"}},{"base_weights":[2.4839357E-2,-1.4022215E-1,7.88111E-1,1.8323113E-1,-5.609629E-1,6.093105E-1,1.2864642E0,3.2394442E-1,-1.888659E-1,-8.842882E-1,-1.888659E-1,9.4788736E-1,3.2394442E-1,1.4665349E0,1.0321643E0,2.363874E-3,1.1338055E-2,-6.6103064E-3,2.363874E-3,-1.8780196E-2,-3.9248865E-2,-1.8780196E-2,-6.6103064E-3,3.3176057E-2,2.2257056E-2,1.1338055E-2,2.2257056E-2,4.5728024E-2,5.6791496E-2,4.3727238E-2,3.3176057E-2],"categories":[],"categories_nodes":[],"categories_segments":[],"categories_sizes":[],"default_left":[0,0,0,0,0,0,0,0,0,0,0,0,0,0,0,0,0,0,0,0,0,0,0,0,0,0,0,0,0,0,0],"id":19,"left_children":[1,3,5,7,9,11,13,15,17,19,21,23,25,27,29,-1,-1,-1,-1,-1,-1,-1,-1,-1,-1,-1,-1,-1,-1,-1,-1],"loss_changes":[1.4296554E3,1.2693391E3,1.775393E2,6.180888E2,5.734136E2,1.7170294E2,1.9560486E1,1.4008887E2,1.226676E2,2.1997632E2,1.2607135E2,2.5688782E1,5.233841E1,1.1203003E0,1.610579E1,0E0,0E0,0E0,0E0,0E0,0E0,0E0,0E0,0E0,0E0,0E0,0E0,0E0,0E0,0E0,0E0],"parents":[2147483647,0,0,1,1,2,2,3,3,4,4,5,5,6,6,7,7,8,8,9,9,10,10,11,11,12,12,13,13,14,14],"right_children":[2,4,6,8,10,12,14,16,18,20,22,24,26,28,30,-1,-1,-1,-1,-1,-1,-1,-1,-1,-1,-1,-1,-1,-1,-1,-1],"split_conditions":[1.4593407E0,6.8208104E-1,2.5584903E0,7.606958E-1,3.8853687E-1,6.925111E-1,1.0103031E0,2.3812726E-1,7.582444E-1,6.4875364E-1,2.9471242E-1,1.2191447E0,4.635332E-1,3.3112433E0,7.328706E-1,2.363874E-3,1.1338055E-2,-6.6103064E-3,2.363874E-3,-1.8780196E-2,-3.9248865E-2,-1.8780196E-2,-6.6103064E-3,3.3176057E-2,2.2257056E-2,1.1338055E-2,2.2257056E-2,4.5728024E-2,5.6791496E-2,4.3727238E-2,3.3176057E-2],"split_indices":[4,3,4,7,0,7,6,0,1,7,5,6,0,4,7,0,0,0,0,0,0,0,0,0,0,0,0,0,0,0,0],"split_type":[0,0,0,0,0,0,0,0,0,0,0,0,0,0,0,0,0,0,0,0,0,0,0,0,0,0,0,0,0,0,0],"sum_hessian":[1.1322547E4,9.310287E3,2.0122599E3,5.2633184E3,4.046969E3,1.4873125E3,5.249474E2,3.3107422E3,1.9525759E3,2.3410623E3,1.7059069E3,7.430096E2,7.4430286E2,2.966531E2,2.2829427E2,8.947957E2,2.4159465E3,1.3787162E3,5.738597E2,8.711066E2,1.4699556E3,6.688731E2,1.0370337E3,6.3495233E2,1.0805725E2,5.228488E2,2.214541E2,1.6352206E2,1.3313103E2,1.2943858E2,9.885568E1],"tree_param":{"num_deleted":"0","num_feature":"10","num_nodes":"31","size_leaf_vector":"1"}},{"base_weights":[4.1764587E-2,3.81697E-1,-3.1470978E-1,3.349361E-2,7.054455E-1,-6.3081735E-1,3.349361E-2,3.6946958E-1,3.349361E-2,9.591406E-1,3.6946958E-1,-2.986619E-1,-1.0254602E0,-2.986619E-1,3.349361E-2,1.2931435E-2,7.051856E-3,1.1722763E-3,7.051856E-3,2.3250679E-2,4.1223258E-2,1.2931435E-2,2.3250679E-2,-1.0453166E-2,-2.3172138E-2,-4.215488E-2,-2.3172138E-2,-4.640445E-3,-1.0453166E-2,1.1722763E-3,-4.640445E-3],"categories":[],"categories_nodes":[],"categories_segments":[],"categories_sizes":[],"default_left":[0,0,0,0,0,0,0,0,0,0,0,0,0,0,0,0,0,0,0,0,0,0,0,0,0,0,0,0,0,0,0],"id":20,"left_children":[1,3,5,7,9,11,13,15,17,19,21,23,25,27,29,-1,-1,-1,-1,-1,-1,-1,-1,-1,-1,-1,-1,-1,-1,-1,-1],"loss_changes":[1.3701562E3,6.586858E2,7.237523E2,2.4387964E2,2.908485E2,4.6106958E2,1.4660799E2,2.7777588E1,5.985311E1,1.3430652E2,8.2807755E1,1.2037877E2,1.5073865E2,3.0239601E1,3.9456474E1,0E0,0E0,0E0,0E0,0E0,0E0,0E0,0E0,0E0,0E0,0E0,0E0,0E0,0E0,0E0,0E0],"parents":[2147483647,0,0,1,1,2,2,3,3,4,4,5,5,6,6,7,7,8,8,9,9,10,10,11,11,12,12,13,13,14,14],"right_children":[2,4,6,8,10,12,14,16,18,20,22,24,26,28,30,-1,-1,-1,-1,-1,-1,-1,-1,-1,-1,-1,-1,-1,-1,-1,-1],"split_conditions":[5.8164865E-1,2.895978E-1,7.323113E-1,5.5149645E-1,1.0224814E0,9.759984E-1,1.9757646E-1,1.1035292E0,1.068148E0,2.9633495E-1,7.582444E-1,6.686876E-1,8.9343643E-1,5.084652E-1,1.2466153E0,1.2931435E-2,7.051856E-3,1.1722763E-3,7.051856E-3,2.3250679E-2,4.1223258E-2,1.2931435E-2,2.3250679E-2,-1.0453166E-2,-2.3172138E-2,-4.215488E-2,-2.3172138E-2,-4.640445E-3,-1.0453166E-2,1.1722763E-3,-4.640445E-3],"split_indices":[2,9,4,3,6,6,9,6,1,5,1,3,1,3,6,0,0,0,0,0,0,0,0,0,0,0,0,0,0,0,0],"split_type":[0,0,0,0,0,0,0,0,0,0,0,0,0,0,0,0,0,0,0,0,0,0,0,0,0,0,0,0,0,0,0],"sum_hessian":[1.1289716E4,5.7802695E3,5.509447E3,2.7729055E3,3.0073638E3,3.150082E3,2.3593647E3,9.319769E2,1.8409286E3,1.8104556E3,1.1969082E3,1.6226699E3,1.5274122E3,6.340037E2,1.7253612E3,6.80938E2,2.5103899E2,1.5159109E3,3.250178E2,7.0291205E2,1.1075435E3,8.1951355E2,3.7739468E2,8.793265E2,7.433434E2,1.1997543E3,3.2765796E2,1.7099097E2,4.6301273E2,1.5179235E3,2.0743771E2],"tree_param":{"num_deleted":"0","num_feature":"10","num_nodes":"31","size_leaf_vector":"1"}},{"base_weights":[3.2316677E-2,5.510451E-1,-2.1155225E-1,2.1058433E-1,8.487788E-1,-4.7589377E-1,1.6974643E-1,1.6974643E-1,5.2968156E-1,1.0780256E0,5.6322634E-1,-7.400503E-1,-1.5307367E-1,1.6974643E-1,-1.5307367E-1,5.941125E-3,1.223999E-2,1.8538855E-2,1.223999E-2,4.5201607E-2,2.8721908E-2,1.8538855E-2,2.8721908E-2,-1.562967E-2,-3.5500888E-2,-5.3575784E-3,-1.562967E-2,5.941125E-3,2.917733E-4,2.917733E-4,-5.3575784E-3],"categories":[],"categories_nodes":[],"categories_segments":[],"categories_sizes":[],"default_left":[0,0,0,0,0,0,0,0,0,0,0,0,0,0,0,0,0,0,0,0,0,0,0,0,0,0,0,0,0,0,0],"id":21,"left_children":[1,3,5,7,9,11,13,15,17,19,21,23,25,27,29,-1,-1,-1,-1,-1,-1,-1,-1,-1,-1,-1,-1,-1,-1,-1,-1],"loss_changes":[1.4341205E3,3.6657715E2,1.0268641E3,1.7115863E2,1.24446045E2,6.694137E2,1.2289697E2,4.017868E1,1.1719055E1,5.890088E1,5.7105255E1,4.0528735E2,8.7802536E1,2.3401337E1,4.1433594E1,0E0,0E0,0E0,0E0,0E0,0E0,0E0,0E0,0E0,0E0,0E0,0E0,0E0,0E0,0E0,0E0],"parents":[2147483647,0,0,1,1,2,2,3,3,4,4,5,5,6,6,7,7,8,8,9,9,10,10,11,11,12,12,13,13,14,14],"right_children":[2,4,6,8,10,12,14,16,18,20,22,24,26,28,30,-1,-1,-1,-1,-1,-1,-1,-1,-1,-1,-1,-1,-1,-1,-1,-1],"split_conditions":[6.115673E-1,2.828542E-1,3.7946153E-1,9.4750625E-1,5.986138E-1,9.76563E-1,7.380943E-1,1.0839866E0,1.2466153E0,9.983932E-1,6.4258784E-1,8.8708323E-1,7.6457894E-1,1.2761486E0,5.2961713E-1,5.941125E-3,1.223999E-2,1.8538855E-2,1.223999E-2,4.5201607E-2,2.8721908E-2,1.8538855E-2,2.8721908E-2,-1.562967E-2,-3.5500888E-2,-5.3575784E-3,-1.562967E-2,5.941125E-3,2.917733E-4,2.917733E-4,-5.3575784E-3],"split_indices":[7,9,9,4,2,4,3,1,6,6,1,6,3,6,2,0,0,0,0,0,0,0,0,0,0,0,0,0,0,0,0],"split_type":[0,0,0,0,0,0,0,0,0,0,0,0,0,0,0,0,0,0,0,0,0,0,0,0,0,0,0,0,0,0,0],"sum_hessian":[1.13167705E4,3.6190623E3,7.6977085E3,1.6923395E3,1.9267227E3,5.145162E3,2.5525461E3,1.0931143E3,5.9922516E2,1.0621672E3,8.645554E2,3.4957356E3,1.6494266E3,1.7305645E3,8.2198175E2,8.88335E2,2.0477927E2,5.3001843E2,6.920678E1,5.8819366E2,4.739736E2,5.603605E2,3.0419495E2,1.3063171E3,2.1894185E3,1.2170985E3,4.3232812E2,1.5408396E3,1.8972485E2,3.640829E2,4.5789886E2],"tree_param":{"num_deleted":"0","num_feature":"10","num_nodes":"31","size_leaf_vector":"1"}},{"base_weights":[4.520767E-2,-1.5787216E-1,6.0742223E-1,2.2477505E-1,-4.1413864E-1,8.932078E-1,2.3363703E-1,2.2477505E-1,-9.46818E-2,-8.666286E-1,-1.2886485E-1,5.6342244E-1,1.0482678E0,5.6342244E-1,2.2477505E-1,2.2766318E-3,7.867127E-3,-3.313863E-3,2.2766318E-3,-3.9394118E-2,-1.7421136E-2,-3.313863E-3,-1.7421136E-2,2.820458E-2,1.9719785E-2,4.204403E-2,2.820458E-2,1.3793456E-2,1.9719785E-2,1.3793456E-2,7.867127E-3],"categories":[],"categories_nodes":[],"categories_segments":[],"categories_sizes":[],"default_left":[0,0,0,0,0,0,0,0,0,0,0,0,0,0,0,0,0,0,0,0,0,0,0,0,0,0,0,0,0,0,0],"id":22,"left_children":[1,3,5,7,9,11,13,15,17,19,21,23,25,27,29,-1,-1,-1,-1,-1,-1,-1,-1,-1,-1,-1,-1,-1,-1,-1,-1],"loss_changes":[1.2935121E3,1.071416E3,3.2009668E2,1.16392395E2,7.2327295E2,1.1963562E2,1.2219142E2,2.4100159E1,4.2440655E1,2.6409473E2,3.2443765E2,1.6130905E1,5.8475952E1,5.248596E0,3.4899757E1,0E0,0E0,0E0,0E0,0E0,0E0,0E0,0E0,0E0,0E0,0E0,0E0,0E0,0E0,0E0,0E0],"parents":[2147483647,0,0,1,1,2,2,3,3,4,4,5,5,6,6,7,7,8,8,9,9,10,10,11,11,12,12,13,13,14,14],"right_children":[2,4,6,8,10,12,14,16,18,20,22,24,26,28,30,-1,-1,-1,-1,-1,-1,-1,-1,-1,-1,-1,-1,-1,-1,-1,-1],"split_conditions":[4.1571468E-1,6.115673E-1,6.054064E-1,6.8745464E-1,2.9376695E-1,2.259278E-1,4.9940288E-1,1.4570169E-1,6.3074535E-1,4.0922725E-1,7.289104E-1,5.150616E-1,7.736336E-1,1.0536603E-1,6.2393767E-1,2.2766318E-3,7.867127E-3,-3.313863E-3,2.2766318E-3,-3.9394118E-2,-1.7421136E-2,-3.313863E-3,-1.7421136E-2,2.820458E-2,1.9719785E-2,4.204403E-2,2.820458E-2,1.3793456E-2,1.9719785E-2,1.3793456E-2,7.867127E-3],"split_indices":[9,7,2,2,0,0,3,0,4,5,3,3,7,0,7,0,0,0,0,0,0,0,0,0,0,0,0,0,0,0,0],"split_type":[0,0,0,0,0,0,0,0,0,0,0,0,0,0,0,0,0,0,0,0,0,0,0,0,0,0,0,0,0,0,0],"sum_hessian":[1.1307191E4,8.306974E3,3.000217E3,2.705535E3,5.601439E3,1.6963738E3,1.3038433E3,1.9034393E3,8.020955E2,2.1622095E3,3.4392297E3,4.0149506E2,1.2948788E3,3.6119952E2,9.4264374E2,1.991246E2,1.7043147E3,3.9939655E2,4.02699E2,1.415175E3,7.4703436E2,2.258085E3,1.1811447E3,1.1363248E2,2.8786255E2,8.6934814E2,4.2553055E2,1.6303185E1,3.4489633E2,3.2963486E2,6.1300885E2],"tree_param":{"num_deleted":"0","num_feature":"10","num_nodes":"31","size_leaf_vector":"1"}},{"base_weights":[3.51281E-2,5.747938E-1,-1.7989735E-1,8.4748685E-1,1.9744822E-1,-4.640559E-1,1.9744822E-1,1.033163E0,5.2246755E-1,1.9744822E-1,5.2246755E-1,-1.3330384E-1,-7.9534215E-1,-1.3330384E-1,1.9744822E-1,2.7223533E-2,4.2494338E-2,1.8286364E-2,2.7223533E-2,1.2598526E-2,6.910688E-3,1.2598526E-2,1.8286364E-2,-1.6251305E-2,-4.665634E-3,-1.6251305E-2,-3.854381E-2,-4.665634E-3,1.1225268E-3,6.910688E-3,1.1225268E-3],"categories":[],"categories_nodes":[],"categories_segments":[],"categories_sizes":[],"default_left":[0,0,0,0,0,0,0,0,0,0,0,0,0,0,0,0,0,0,0,0,0,0,0,0,0,0,0,0,0,0,0],"id":23,"left_children":[1,3,5,7,9,11,13,15,17,19,21,23,25,27,29,-1,-1,-1,-1,-1,-1,-1,-1,-1,-1,-1,-1,-1,-1,-1,-1],"loss_changes":[1.3025022E3,3.53667E2,1.00274414E3,1.5535095E2,1.0091762E2,6.7060913E2,1.9997389E2,6.1838135E1,3.552446E1,2.6059319E1,6.8238525E0,1.2367815E2,3.198092E2,4.6801006E1,2.4873505E1,0E0,0E0,0E0,0E0,0E0,0E0,0E0,0E0,0E0,0E0,0E0,0E0,0E0,0E0,0E0,0E0],"parents":[2147483647,0,0,1,1,2,2,3,3,4,4,5,5,6,6,7,7,8,8,9,9,10,10,11,11,12,12,13,13,14,14],"right_children":[2,4,6,8,10,12,14,16,18,20,22,24,26,28,30,-1,-1,-1,-1,-1,-1,-1,-1,-1,-1,-1,-1,-1,-1,-1,-1],"split_conditions":[5.234639E-1,7.464355E-1,5.7446724E-1,6.920595E-1,1.1839702E0,5.3654647E-1,2.5645143E-1,3.0226582E-1,4.4425714E-1,3.9560455E-1,1.801485E-1,2.5867805E-1,6.8233645E-1,1.440213E0,7.7454954E-1,2.7223533E-2,4.2494338E-2,1.8286364E-2,2.7223533E-2,1.2598526E-2,6.910688E-3,1.2598526E-2,1.8286364E-2,-1.6251305E-2,-4.665634E-3,-1.6251305E-2,-3.854381E-2,-4.665634E-3,1.1225268E-3,6.910688E-3,1.1225268E-3],"split_indices":[3,7,1,2,4,2,0,0,0,2,0,5,7,4,2,0,0,0,0,0,0,0,0,0,0,0,0,0,0,0,0],"split_type":[0,0,0,0,0,0,0,0,0,0,0,0,0,0,0,0,0,0,0,0,0,0,0,0,0,0,0,0,0,0,0],"sum_hessian":[1.12029375E4,3.1918188E3,8.0111187E3,1.9095486E3,1.2822703E3,4.895265E3,3.1158533E3,1.3690172E3,5.4053143E2,9.5014417E2,3.3212607E2,2.1470227E3,2.7482427E3,9.2205536E2,2.1937979E3,5.696131E2,7.994041E2,3.590046E2,1.8152682E2,2.2622714E2,7.2391705E2,5.0784733E1,2.8134134E2,6.980121E2,1.4490106E3,1.2197137E3,1.5285289E3,7.2806256E2,1.9399283E2,1.8182032E3,3.7559464E2],"tree_param":{"num_deleted":"0","num_feature":"10","num_nodes":"31","size_leaf_vector":"1"}},{"base_weights":[2.4843154E-2,-1.7358065E-1,5.834347E-1,2.0492703E-1,-4.451136E-1,3.0570126E-1,9.380225E-1,2.0492703E-1,-1.20093286E-1,-7.2599214E-1,-1.20093286E-1,2.0492703E-1,6.218619E-1,1.1386979E0,6.218619E-1,7.1724458E-3,1.4845905E-3,-4.203265E-3,1.4845905E-3,-3.4276612E-2,-1.4806495E-2,-4.203265E-3,-1.4806495E-2,1.4468806E-2,7.1724458E-3,2.1765165E-2,1.4468806E-2,4.7081586E-2,3.0809797E-2,3.0809797E-2,2.1765165E-2],"categories":[],"categories_nodes":[],"categories_segments":[],"categories_sizes":[],"default_left":[0,0,0,0,0,0,0,0,0,0,0,0,0,0,0,0,0,0,0,0,0,0,0,0,0,0,0,0,0,0,0],"id":24,"left_children":[1,3,5,7,9,11,13,15,17,19,21,23,25,27,29,-1,-1,-1,-1,-1,-1,-1,-1,-1,-1,-1,-1,-1,-1,-1,-1],"loss_changes":[1.2382974E3,1.02050903E3,2.872954E2,1.8280817E2,5.8825757E2,1.5810414E2,1.0552612E2,3.8624207E1,3.4680405E1,3.2666895E2,1.2505965E2,4.5160038E1,1.6156494E1,4.53291E1,1.6768578E1,0E0,0E0,0E0,0E0,0E0,0E0,0E0,0E0,0E0,0E0,0E0,0E0,0E0,0E0,0E0,0E0],"parents":[2147483647,0,0,1,1,2,2,3,3,4,4,5,5,6,6,7,7,8,8,9,9,10,10,11,11,12,12,13,13,14,14],"right_children":[2,4,6,8,10,12,14,16,18,20,22,24,26,28,30,-1,-1,-1,-1,-1,-1,-1,-1,-1,-1,-1,-1,-1,-1,-1,-1],"split_conditions":[4.8311874E-1,5.770855E-1,3.2970938E-1,7.9648834E-1,3.7845862E-1,4.2498556E-1,1.0603664E0,7.8603065E-1,9.766065E-1,5.944945E-1,1.1762958E0,4.0969032E-1,1.130137E0,5.86369E-1,5.9647745E-1,7.1724458E-3,1.4845905E-3,-4.203265E-3,1.4845905E-3,-3.4276612E-2,-1.4806495E-2,-4.203265E-3,-1.4806495E-2,1.4468806E-2,7.1724458E-3,2.1765165E-2,1.4468806E-2,4.7081586E-2,3.0809797E-2,3.0809797E-2,2.1765165E-2],"split_indices":[0,3,9,7,5,5,6,2,1,1,6,2,6,2,7,0,0,0,0,0,0,0,0,0,0,0,0,0,0,0,0],"split_type":[0,0,0,0,0,0,0,0,0,0,0,0,0,0,0,0,0,0,0,0,0,0,0,0,0,0,0,0,0,0,0],"sum_hessian":[1.1149501E4,8.227273E3,2.9222278E3,3.0256514E3,5.2016216E3,1.6434165E3,1.2788113E3,2.16064E3,8.650116E2,3.0956218E3,2.1059998E3,1.0860557E3,5.5736084E2,8.745523E2,4.0425897E2,1.8436946E3,3.1694525E2,6.895745E2,1.7543703E2,1.971699E3,1.1239227E3,1.7031228E3,4.0287708E2,2.7917548E2,8.0688025E2,4.2635376E2,1.3100706E2,4.867004E2,3.8785187E2,1.1841055E2,2.8584842E2],"tree_param":{"num_deleted":"0","num_feature":"10","num_nodes":"31","size_leaf_vector":"1"}},{"base_weights":[4.4407386E-2,-1.0856031E-1,7.9393804E-1,-4.3567622E-1,2.6800898E-1,6.1247456E-1,1.2668064E0,-7.541464E-1,-8.383362E-2,3.4268886E-1,-8.383362E-2,9.0641564E-1,3.4268886E-1,1.4128151E0,9.6623415E-1,-4.0244833E-2,-1.7443828E-2,-2.9341767E-3,-1.4664651E-2,4.5299665E-3,1.199411E-2,4.5299665E-3,-2.9341767E-3,2.185933E-2,3.2887418E-2,1.199411E-2,2.185933E-2,4.1633364E-2,5.1763322E-2,3.2887418E-2,4.1633364E-2],"categories":[],"categories_nodes":[],"categories_segments":[],"categories_sizes":[],"default_left":[0,0,0,0,0,0,0,0,0,0,0,0,0,0,0,0,0,0,0,0,0,0,0,0,0,0,0,0,0,0,0],"id":25,"left_children":[1,3,5,7,9,11,13,15,17,19,21,23,25,27,29,-1,-1,-1,-1,-1,-1,-1,-1,-1,-1,-1,-1,-1,-1,-1,-1],"loss_changes":[1.2859525E3,1.1469508E3,1.6087646E2,6.8574603E2,4.099709E2,1.298598E2,1.8666748E1,2.9153052E2,1.3857257E2,9.570172E1,6.0621407E1,4.1828552E1,3.6792862E1,3.998352E0,5.151108E0,0E0,0E0,0E0,0E0,0E0,0E0,0E0,0E0,0E0,0E0,0E0,0E0,0E0,0E0,0E0,0E0],"parents":[2147483647,0,0,1,1,2,2,3,3,4,4,5,5,6,6,7,7,8,8,9,9,10,10,11,11,12,12,13,13,14,14],"right_children":[2,4,6,8,10,12,14,16,18,20,22,24,26,28,30,-1,-1,-1,-1,-1,-1,-1,-1,-1,-1,-1,-1,-1,-1,-1,-1],"split_conditions":[1.5056369E0,3.1459174E-1,2.5584903E0,3.7628385E-1,1.0603664E0,5.8860725E-1,6.628752E-1,2.9032204E-1,1.130137E0,2.259278E-1,4.517637E-1,2.5278106E-1,4.971651E-1,1.4974931E-1,4.6587247E-1,-4.0244833E-2,-1.7443828E-2,-2.9341767E-3,-1.4664651E-2,4.5299665E-3,1.199411E-2,4.5299665E-3,-2.9341767E-3,2.185933E-2,3.2887418E-2,1.199411E-2,2.185933E-2,4.1633364E-2,5.1763322E-2,3.2887418E-2,4.1633364E-2],"split_indices":[4,9,4,5,6,2,2,0,6,0,2,0,0,0,0,0,0,0,0,0,0,0,0,0,0,0,0,0,0,0,0],"split_type":[0,0,0,0,0,0,0,0,0,0,0,0,0,0,0,0,0,0,0,0,0,0,0,0,0,0,0,0,0,0,0],"sum_hessian":[1.118974E4,9.294174E3,1.8955669E3,4.9748423E3,4.3193315E3,1.3763806E3,5.191862E2,2.8932773E3,2.081565E3,2.8400588E3,1.4792725E3,7.20821E2,6.5555963E2,3.3972845E2,1.7945778E2,1.1302002E3,1.7630773E3,1.5679906E3,5.1357446E2,6.5460455E2,2.1854543E3,4.5714032E2,1.02213214E3,2.0249869E2,5.183223E2,4.9200314E2,1.6355652E2,4.1910976E1,2.9781747E2,1.1900097E2,6.0456802E1],"tree_param":{"num_deleted":"0","num_feature":"10","num_nodes":"31","size_leaf_vector":"1"}},{"base_weights":[3.9767392E-2,-1.04877844E-1,8.193695E-1,-3.7010723E-1,3.4163445E-1,1.0257466E0,4.373179E-1,-6.7827964E-1,-1.4236391E-2,3.5724583E-1,-1.4236391E-2,8.7388384E-1,1.3573512E0,7.315322E-1,3.5724583E-1,-1.2119031E-2,-3.312119E-2,-4.982737E-4,-1.2119031E-2,1.2503604E-2,6.002665E-3,6.002665E-3,-4.982737E-4,2.5603628E-2,3.745104E-2,5.190035E-2,4.100639E-2,1.9053616E-2,2.5603628E-2,1.2503604E-2,1.9053616E-2],"categories":[],"categories_nodes":[],"categories_segments":[],"categories_sizes":[],"default_left":[0,0,0,0,0,0,0,0,0,0,0,0,0,0,0,0,0,0,0,0,0,0,0,0,0,0,0,0,0,0,0],"id":26,"left_children":[1,3,5,7,9,11,13,15,17,19,21,23,25,27,29,-1,-1,-1,-1,-1,-1,-1,-1,-1,-1,-1,-1,-1,-1,-1,-1],"loss_changes":[1.2505558E3,1.1071915E3,1.3513464E2,7.7527454E2,2.4880276E2,5.3092773E1,5.9549774E1,4.4161243E2,1.7507944E2,5.2124023E1,4.822663E1,3.9166748E1,2.7648926E0,5.2024994E0,1.5062359E1,0E0,0E0,0E0,0E0,0E0,0E0,0E0,0E0,0E0,0E0,0E0,0E0,0E0,0E0,0E0,0E0],"parents":[2147483647,0,0,1,1,2,2,3,3,4,4,5,5,6,6,7,7,8,8,9,9,10,10,11,11,12,12,13,13,14,14],"right_children":[2,4,6,8,10,12,14,16,18,20,22,24,26,28,30,-1,-1,-1,-1,-1,-1,-1,-1,-1,-1,-1,-1,-1,-1,-1,-1],"split_conditions":[1.5794144E0,6.0083187E-1,6.533804E-1,3.37729E-1,1.1035292E0,2.5584903E0,6.526892E-1,4.7529835E-1,1.1528649E0,7.60127E-1,4.641052E-1,2.4820627E-1,1.0103031E0,1.1314438E-1,7.491266E-1,-1.2119031E-2,-3.312119E-2,-4.982737E-4,-1.2119031E-2,1.2503604E-2,6.002665E-3,6.002665E-3,-4.982737E-4,2.5603628E-2,3.745104E-2,5.190035E-2,4.100639E-2,1.9053616E-2,2.5603628E-2,1.2503604E-2,1.9053616E-2],"split_indices":[4,1,2,9,6,4,7,2,6,2,2,9,6,9,1,0,0,0,0,0,0,0,0,0,0,0,0,0,0,0,0],"split_type":[0,0,0,0,0,0,0,0,0,0,0,0,0,0,0,0,0,0,0,0,0,0,0,0,0,0,0,0,0,0,0],"sum_hessian":[1.1062549E4,9.332362E3,1.7301871E3,5.8563994E3,3.4759626E3,1.1183846E3,6.118025E2,3.4366309E3,2.4197686E3,2.470076E3,1.0058868E3,7.766355E2,3.4174915E2,2.3802147E2,3.73781E2,1.1606134E3,2.2760173E3,1.9012661E3,5.185024E2,2.0029153E3,4.671606E2,3.150994E2,6.9078735E2,2.8933865E2,4.8729684E2,1.8822173E2,1.5352742E2,2.6991085E1,2.1103038E2,2.5382634E2,1.1995465E2],"tree_param":{"num_deleted":"0","num_feature":"10","num_nodes":"31","size_leaf_vector":"1"}},{"base_weights":[3.4655053E-2,-1.0000516E-1,8.05672E-1,-3.376838E-1,3.5283342E-1,6.5079147E-1,1.2395549E0,7.5748116E-3,-6.6660917E-1,7.5748116E-3,3.5283342E-1,3.7783217E-1,9.4517314E-1,9.4517314E-1,1.3499756E0,2.651184E-4,-1.1533101E-2,-3.281129E-2,-1.1533101E-2,6.307144E-3,2.651184E-4,6.307144E-3,1.234917E-2,2.3152594E-2,1.234917E-2,2.3152594E-2,3.308106E-2,4.0165104E-2,3.308106E-2,5.1854894E-2,4.0165104E-2],"categories":[],"categories_nodes":[],"categories_segments":[],"categories_sizes":[],"default_left":[0,0,0,0,0,0,0,0,0,0,0,0,0,0,0,0,0,0,0,0,0,0,0,0,0,0,0,0,0,0,0],"id":27,"left_children":[1,3,5,7,9,11,13,15,17,19,21,23,25,27,29,-1,-1,-1,-1,-1,-1,-1,-1,-1,-1,-1,-1,-1,-1,-1,-1],"loss_changes":[1.160821E3,1.1016443E3,1.0940796E2,7.56456E2,1.7906744E2,1.0211627E2,1.9222107E1,2.3322119E2,3.4433423E2,5.4544556E1,2.5556335E1,5.392576E1,1.5918152E1,3.814659E-1,1.0281921E1,0E0,0E0,0E0,0E0,0E0,0E0,0E0,0E0,0E0,0E0,0E0,0E0,0E0,0E0,0E0,0E0],"parents":[2147483647,0,0,1,1,2,2,3,3,4,4,5,5,6,6,7,7,8,8,9,9,10,10,11,11,12,12,13,13,14,14],"right_children":[2,4,6,8,10,12,14,16,18,20,22,24,26,28,30,-1,-1,-1,-1,-1,-1,-1,-1,-1,-1,-1,-1,-1,-1,-1,-1],"split_conditions":[1.1633782E0,4.4425714E-1,1.980985E0,6.944738E-1,2.4634796E-1,3.697663E-1,1.4665928E-1,7.127484E-1,3.7208155E-1,5.150488E-1,1.8231322E-1,4.7529835E-1,1.6830681E-1,4.7529835E-1,7.884912E-1,2.651184E-4,-1.1533101E-2,-3.281129E-2,-1.1533101E-2,6.307144E-3,2.651184E-4,6.307144E-3,1.234917E-2,2.3152594E-2,1.234917E-2,2.3152594E-2,3.308106E-2,4.0165104E-2,3.308106E-2,5.1854894E-2,4.0165104E-2],"split_indices":[1,0,1,7,9,0,9,3,5,2,5,2,5,2,7,0,0,0,0,0,0,0,0,0,0,0,0,0,0,0,0],"split_type":[0,0,0,0,0,0,0,0,0,0,0,0,0,0,0,0,0,0,0,0,0,0,0,0,0,0,0,0,0,0,0],"sum_hessian":[1.1151619E4,9.494664E3,1.6569551E3,6.391862E3,3.1028022E3,1.2283005E3,4.2865448E2,3.0549104E3,3.3369512E3,1.1565004E3,1.9463018E3,6.5578674E2,5.725138E2,7.106003E1,3.5759445E2,1.9469358E3,1.1079747E3,1.9548953E3,1.3820559E3,4.7963113E2,6.7686926E2,3.3830377E2,1.6079979E3,2.2736958E2,4.2841714E2,9.191326E1,4.8060056E2,2.4642094E1,4.641794E1,2.5465373E2,1.0294071E2],"tree_param":{"num_deleted":"0","num_feature":"10","num_nodes":"31","size_leaf_vector":"1"}},{"base_weights":[4.0640797E-2,5.552349E-1,-1.7778568E-1,7.8747016E-1,1.887246E-1,1.629384E-1,-4.9781942E-1,4.8809737E-1,9.8276305E-1,1.887246E-1,4.8809737E-1,1.887246E-1,-1.674405E-1,-1.9596002E-1,-8.786309E-1,2.574006E-2,1.7083408E-2,2.5778469E-2,4.1371517E-2,6.605361E-3,1.18443845E-2,1.18443845E-2,1.7083408E-2,3.724718E-4,6.605361E-3,-5.8604176E-3,3.724718E-4,-1.8805342E-2,-5.8604176E-3,-3.6276635E-2,-1.8805342E-2],"categories":[],"categories_nodes":[],"categories_segments":[],"categories_sizes":[],"default_left":[0,0,0,0,0,0,0,0,0,0,0,0,0,0,0,0,0,0,0,0,0,0,0,0,0,0,0,0,0,0,0],"id":28,"left_children":[1,3,5,7,9,11,13,15,17,19,21,23,25,27,29,-1,-1,-1,-1,-1,-1,-1,-1,-1,-1,-1,-1,-1,-1,-1,-1],"loss_changes":[1.2455087E3,3.0291077E2,8.4849146E2,1.4608972E2,9.5472626E1,3.034934E2,4.6021912E2,4.4033234E1,6.408447E1,2.497013E1,1.0863327E1,5.3412262E1,4.8159042E1,2.0369066E2,1.6388953E2,0E0,0E0,0E0,0E0,0E0,0E0,0E0,0E0,0E0,0E0,0E0,0E0,0E0,0E0,0E0,0E0],"parents":[2147483647,0,0,1,1,2,2,3,3,4,4,5,5,6,6,7,7,8,8,9,9,10,10,11,11,12,12,13,13,14,14],"right_children":[2,4,6,8,10,12,14,16,18,20,22,24,26,28,30,-1,-1,-1,-1,-1,-1,-1,-1,-1,-1,-1,-1,-1,-1,-1,-1],"split_conditions":[5.9647745E-1,6.445219E-1,5.64818E-1,2.784223E-1,4.343795E-1,1.0723745E0,6.8208104E-1,5.5149645E-1,2.7648318E-1,1.0839866E0,1.9606473E-1,2.1038283E-1,4.606912E-1,2.9032204E-1,1.1020108E0,2.574006E-2,1.7083408E-2,2.5778469E-2,4.1371517E-2,6.605361E-3,1.18443845E-2,1.18443845E-2,1.7083408E-2,3.724718E-4,6.605361E-3,-5.8604176E-3,3.724718E-4,-1.8805342E-2,-5.8604176E-3,-3.6276635E-2,-1.8805342E-2],"split_indices":[7,2,2,0,0,6,3,3,9,1,9,0,9,0,1,0,0,0,0,0,0,0,0,0,0,0,0,0,0,0,0],"split_type":[0,0,0,0,0,0,0,0,0,0,0,0,0,0,0,0,0,0,0,0,0,0,0,0,0,0,0,0,0,0,0],"sum_hessian":[1.1059629E4,3.295549E3,7.7640796E3,2.0769287E3,1.2186202E3,3.7596812E3,4.0043984E3,7.1975934E2,1.3571694E3,7.954102E2,4.2321005E2,2.5296614E3,1.2300198E3,2.2377563E3,1.7666421E3,2.5489606E2,4.6486328E2,6.156114E2,7.4155804E2,6.416089E2,1.5380133E2,1.04646835E2,3.1856323E2,5.247706E2,2.0048907E3,9.8295575E2,2.4706406E2,8.380758E2,1.3996805E3,1.4843588E3,2.8228333E2],"tree_param":{"num_deleted":"0","num_feature":"10","num_nodes":"31","size_leaf_vector":"1"}},{"base_weights":[4.0070243E-2,3.506943E-1,-3.1011418E-1,6.288945E-2,7.083606E-1,-6.498491E-1,2.0290062E-2,3.8562503E-1,2.0290062E-2,5.489775E-1,1.1779407E0,-9.2432994E-1,-3.1477952E-1,2.0290062E-2,-3.1477952E-1,1.3496877E-2,7.103514E-3,7.1015215E-4,7.103514E-3,2.9240627E-2,1.3496877E-2,4.6402786E-2,3.1106908E-2,-3.9642517E-2,-2.1684418E-2,-1.1017283E-2,-2.1684418E-2,-5.153565E-3,7.1015215E-4,-5.153565E-3,-1.1017283E-2],"categories":[],"categories_nodes":[],"categories_segments":[],"categories_sizes":[],"default_left":[0,0,0,0,0,0,0,0,0,0,0,0,0,0,0,0,0,0,0,0,0,0,0,0,0,0,0,0,0,0,0],"id":29,"left_children":[1,3,5,7,9,11,13,15,17,19,21,23,25,27,29,-1,-1,-1,-1,-1,-1,-1,-1,-1,-1,-1,-1,-1,-1,-1,-1],"loss_changes":[1.2004672E3,6.0145703E2,6.414822E2,2.7372937E2,1.9323816E2,2.8913977E2,1.7880527E2,3.52063E1,8.1454926E1,1.7484723E2,2.435321E1,1.25551636E2,8.441503E1,3.5443966E1,3.3626114E1,0E0,0E0,0E0,0E0,0E0,0E0,0E0,0E0,0E0,0E0,0E0,0E0,0E0,0E0,0E0,0E0],"parents":[2147483647,0,0,1,1,2,2,3,3,4,4,5,5,6,6,7,7,8,8,9,9,10,10,11,11,12,12,13,13,14,14],"right_children":[2,4,6,8,10,12,14,16,18,20,22,24,26,28,30,-1,-1,-1,-1,-1,-1,-1,-1,-1,-1,-1,-1,-1,-1,-1,-1],"split_conditions":[9.860353E-1,3.6802906E-1,6.4414227E-1,5.5149645E-1,4.300695E-1,5.382469E-1,7.273434E-1,8.0305535E-1,1.2455605E0,6.745364E-1,7.736336E-1,4.0452218E-1,7.313028E-1,2.2254112E-1,5.8478755E-1,1.3496877E-2,7.103514E-3,7.1015215E-4,7.103514E-3,2.9240627E-2,1.3496877E-2,4.6402786E-2,3.1106908E-2,-3.9642517E-2,-2.1684418E-2,-1.1017283E-2,-2.1684418E-2,-5.153565E-3,7.1015215E-4,-5.153565E-3,-1.1017283E-2],"split_indices":[6,5,4,3,9,1,3,7,4,3,7,5,7,1,7,0,0,0,0,0,0,0,0,0,0,0,0,0,0,0,0],"split_type":[0,0,0,0,0,0,0,0,0,0,0,0,0,0,0,0,0,0,0,0,0,0,0,0,0,0,0,0,0,0,0],"sum_hessian":[1.1018384E4,5.8405195E3,5.1778647E3,3.239833E3,2.6006868E3,2.683305E3,2.4945598E3,1.0485846E3,2.1912483E3,1.948105E3,6.5258167E2,1.5862372E3,1.0970677E3,1.6669506E3,8.276091E2,7.771387E2,2.7144592E2,1.6769546E3,5.142938E2,1.1178098E3,8.302952E2,4.223978E2,2.3018384E2,1.0374453E3,5.487918E2,6.298138E2,4.6725394E2,4.5635983E2,1.2105908E3,2.2829648E2,5.993126E2],"tree_param":{"num_deleted":"0","num_feature":"10","num_nodes":"31","size_leaf_vector":"1"}},{"base_weights":[4.2689927E-2,-1.2118046E-1,6.5327704E-1,-4.1803217E-1,2.6604828E-1,4.9991322E-1,1.2012923E0,-6.4225805E-1,-7.599194E-2,2.6604828E-1,-7.599194E-2,8.360001E-1,2.6604828E-1,1.0219811E0,1.4566159E0,-1.2569374E-2,-3.0983854E-2,-2.659718E-3,-1.2569374E-2,9.31169E-3,3.325986E-3,-2.659718E-3,3.325986E-3,2.9771097E-2,1.9285847E-2,9.31169E-3,1.9285847E-2,2.9771097E-2,4.1728906E-2,5.3285263E-2,4.337545E-2],"categories":[],"categories_nodes":[],"categories_segments":[],"categories_sizes":[],"default_left":[0,0,0,0,0,0,0,0,0,0,0,0,0,0,0,0,0,0,0,0,0,0,0,0,0,0,0,0,0,0,0],"id":30,"left_children":[1,3,5,7,9,11,13,15,17,19,21,23,25,27,29,-1,-1,-1,-1,-1,-1,-1,-1,-1,-1,-1,-1,-1,-1,-1,-1],"loss_changes":[1.1131287E3,1.0093993E3,1.9618488E2,5.8390326E2,2.752334E2,1.982432E2,1.89823E1,3.55844E2,4.026823E1,4.36745E1,5.7073093E1,3.941919E1,5.7427643E1,1.5876984E1,3.97583E-1,0E0,0E0,0E0,0E0,0E0,0E0,0E0,0E0,0E0,0E0,0E0,0E0,0E0,0E0,0E0,0E0],"parents":[2147483647,0,0,1,1,2,2,3,3,4,4,5,5,6,6,7,7,8,8,9,9,10,10,11,11,12,12,13,13,14,14],"right_children":[2,4,6,8,10,12,14,16,18,20,22,24,26,28,30,-1,-1,-1,-1,-1,-1,-1,-1,-1,-1,-1,-1,-1,-1,-1,-1],"split_conditions":[1.3304516E0,5.096479E-1,2.5584903E0,4.7986054E-1,7.307952E-1,6.944738E-1,3.3112433E0,4.9128085E-1,7.173602E-1,7.532971E-1,1.3595358E0,7.611766E-1,4.940407E-1,1.9258222E-1,8.565907E-1,-1.2569374E-2,-3.0983854E-2,-2.659718E-3,-1.2569374E-2,9.31169E-3,3.325986E-3,-2.659718E-3,3.325986E-3,2.9771097E-2,1.9285847E-2,9.31169E-3,1.9285847E-2,2.9771097E-2,4.1728906E-2,5.3285263E-2,4.337545E-2],"split_indices":[4,1,4,0,3,7,4,2,2,2,1,3,0,9,3,0,0,0,0,0,0,0,0,0,0,0,0,0,0,0,0],"split_type":[0,0,0,0,0,0,0,0,0,0,0,0,0,0,0,0,0,0,0,0,0,0,0,0,0,0,0,0,0,0,0],"sum_hessian":[1.109961E4,8.751606E3,2.348004E3,4.958336E3,3.7932705E3,1.8404965E3,5.075074E2,3.6267527E3,1.3315836E3,2.5438508E3,1.2494197E3,9.1623627E2,9.2426025E2,3.0924936E2,1.9825803E2,1.2934216E3,2.333331E3,1.00453735E3,3.2704623E2,2.0359944E3,5.0785645E2,9.287838E2,3.2063586E2,6.511576E2,2.6507867E2,6.861325E2,2.3812773E2,8.198425E1,2.2726509E2,1.7635432E2,2.19037E1],"tree_param":{"num_deleted":"0","num_feature":"10","num_nodes":"31","size_leaf_vector":"1"}},{"base_weights":[5.546022E-2,4.315188E-1,-2.1171598E-1,6.520924E-1,1.09901406E-1,8.7624945E-2,-5.7709306E-1,3.809969E-1,8.6801195E-1,1.09901406E-1,3.809969E-1,1.09901406E-1,-2.4473406E-1,-8.2381225E-1,-2.4473406E-1,2.1857657E-2,1.3334892E-2,2.5297603E-2,4.421895E-2,8.590721E-3,3.8465492E-3,1.3334892E-2,8.590721E-3,3.8465492E-3,-2.3595714E-3,-8.565692E-3,-2.3595714E-3,-3.529628E-2,-1.869956E-2,-1.869956E-2,-8.565692E-3],"categories":[],"categories_nodes":[],"categories_segments":[],"categories_sizes":[],"default_left":[0,0,0,0,0,0,0,0,0,0,0,0,0,0,0,0,0,0,0,0,0,0,0,0,0,0,0,0,0,0,0],"id":31,"left_children":[1,3,5,7,9,11,13,15,17,19,21,23,25,27,29,-1,-1,-1,-1,-1,-1,-1,-1,-1,-1,-1,-1,-1,-1,-1,-1],"loss_changes":[1.1121815E3,4.438532E2,7.083434E2,2.2716235E2,8.043348E1,2.889735E2,3.2809375E2,6.3851974E1,1.0809961E2,2.029626E1,8.489578E0,6.2600327E1,4.574225E1,1.7208801E2,4.9303413E1,0E0,0E0,0E0,0E0,0E0,0E0,0E0,0E0,0E0,0E0,0E0,0E0,0E0,0E0,0E0,0E0],"parents":[2147483647,0,0,1,1,2,2,3,3,4,4,5,5,6,6,7,7,8,8,9,9,10,10,11,11,12,12,13,13,14,14],"right_children":[2,4,6,8,10,12,14,16,18,20,22,24,26,28,30,-1,-1,-1,-1,-1,-1,-1,-1,-1,-1,-1,-1,-1,-1,-1,-1],"split_conditions":[5.2185583E-1,1.0723745E0,6.7260367E-1,2.8916728E-1,7.6715016E-1,7.785573E-1,4.4170567E-1,5.4899967E-1,4.853916E-1,4.6397382E-1,7.6724654E-1,1.2466153E0,5.261007E-1,9.031256E-1,1.9125149E-1,2.1857657E-2,1.3334892E-2,2.5297603E-2,4.421895E-2,8.590721E-3,3.8465492E-3,1.3334892E-2,8.590721E-3,3.8465492E-3,-2.3595714E-3,-8.565692E-3,-2.3595714E-3,-3.529628E-2,-1.869956E-2,-1.869956E-2,-8.565692E-3],"split_indices":[2,6,3,5,1,7,0,3,0,7,7,6,0,1,5,0,0,0,0,0,0,0,0,0,0,0,0,0,0,0,0],"split_type":[0,0,0,0,0,0,0,0,0,0,0,0,0,0,0,0,0,0,0,0,0,0,0,0,0,0,0,0,0,0,0],"sum_hessian":[1.1049742E4,4.590447E3,6.459295E3,3.1217427E3,1.468704E3,3.5502446E3,2.9090503E3,1.1987577E3,1.9229851E3,1.0352372E3,4.334669E2,2.3715952E3,1.1786495E3,1.9337472E3,9.7530316E2,3.995643E2,7.9919336E2,1.414471E3,5.085142E2,1.2355799E2,9.1167914E2,2.844071E2,1.4905977E2,2.088457E3,2.8313803E2,9.378634E2,2.4078616E2,1.486554E3,4.4719324E2,1.7967627E2,7.956269E2],"tree_param":{"num_deleted":"0","num_feature":"10","num_nodes":"31","size_leaf_vector":"1"}},{"base_weights":[5.9410293E-2,-1.2203007E-1,6.011854E-1,-5.9781814E-1,1.1077836E-1,8.7815106E-1,2.7810404E-1,-9.318365E-1,-2.9427257E-1,2.3957765E-1,-2.4351989E-1,1.0469394E0,5.7812756E-1,5.7812756E-1,2.3957765E-1,-2.1456908E-2,-3.950875E-2,-8.523196E-3,-2.1456908E-2,8.385218E-3,-6.898914E-5,-6.898914E-5,-8.523196E-3,4.1989073E-2,2.8438672E-2,2.0234466E-2,2.8438672E-2,1.4309841E-2,2.0234466E-2,8.385218E-3,1.4309841E-2],"categories":[],"categories_nodes":[],"categories_segments":[],"categories_sizes":[],"default_left":[0,0,0,0,0,0,0,0,0,0,0,0,0,0,0,0,0,0,0,0,0,0,0,0,0,0,0,0,0,0,0],"id":32,"left_children":[1,3,5,7,9,11,13,15,17,19,21,23,25,27,29,-1,-1,-1,-1,-1,-1,-1,-1,-1,-1,-1,-1,-1,-1,-1,-1],"loss_changes":[1.0898156E3,9.202198E2,2.4781525E2,2.7558038E2,5.4112787E2,9.2349E1,1.072851E2,1.1497009E2,1.353884E2,1.5729172E2,9.95387E1,4.46167E1,2.426471E1,1.6525696E1,2.6894428E1,0E0,0E0,0E0,0E0,0E0,0E0,0E0,0E0,0E0,0E0,0E0,0E0,0E0,0E0,0E0,0E0],"parents":[2147483647,0,0,1,1,2,2,3,3,4,4,5,5,6,6,7,7,8,8,9,9,10,10,11,11,12,12,13,13,14,14],"right_children":[2,4,6,8,10,12,14,16,18,20,22,24,26,28,30,-1,-1,-1,-1,-1,-1,-1,-1,-1,-1,-1,-1,-1,-1,-1,-1],"split_conditions":[4.2697585E-1,2.6921302E-1,6.6072434E-1,3.8828722E-1,1.0934671E0,1.0829958E0,6.6704977E-1,4.3723515E-1,7.0203996E-1,7.535365E-1,5.412903E-1,7.736336E-1,4.6587247E-1,2.5867805E-1,1.0194103E0,-2.1456908E-2,-3.950875E-2,-8.523196E-3,-2.1456908E-2,8.385218E-3,-6.898914E-5,-6.898914E-5,-8.523196E-3,4.1989073E-2,2.8438672E-2,2.0234466E-2,2.8438672E-2,1.4309841E-2,2.0234466E-2,8.385218E-3,1.4309841E-2],"split_indices":[9,0,3,1,6,6,7,2,7,3,7,7,0,5,1,0,0,0,0,0,0,0,0,0,0,0,0,0,0,0,0],"split_type":[0,0,0,0,0,0,0,0,0,0,0,0,0,0,0,0,0,0,0,0,0,0,0,0,0,0,0,0,0,0,0],"sum_hessian":[1.1063023E4,8.28789E3,2.775134E3,2.7228408E3,5.5650483E3,1.4897646E3,1.2853694E3,1.2918257E3,1.4310153E3,3.8945713E3,1.6704773E3,1.031577E3,4.5818756E2,5.587181E2,7.2665125E2,3.6523184E2,9.265939E2,7.336365E2,6.973787E2,2.7876448E3,1.1069265E3,3.7138943E2,1.2990879E3,6.850971E2,3.4647995E2,3.0585056E2,1.5233702E2,1.689977E2,3.8972037E2,5.7091595E2,1.557353E2],"tree_param":{"num_deleted":"0","num_feature":"10","num_nodes":"31","size_leaf_vector":"1"}},{"base_weights":[3.3170853E-2,-1.0356978E-1,7.0822906E-1,2.4510215E-1,-4.0626034E-1,5.425162E-1,1.1492345E0,3.0232963E-1,-8.0579095E-2,-6.399575E-1,-8.0579095E-2,8.458754E-1,3.0232963E-1,9.663571E-1,1.3981006E0,1.0581537E-2,3.8806342E-3,-2.8202683E-3,3.8806342E-3,-3.2849178E-2,-1.2609391E-2,-1.2609391E-2,-2.8202683E-3,2.9605638E-2,2.0093588E-2,1.0581537E-2,2.0093588E-2,2.9605638E-2,4.0212426E-2,4.137801E-2,5.122753E-2],"categories":[],"categories_nodes":[],"categories_segments":[],"categories_sizes":[],"default_left":[0,0,0,0,0,0,0,0,0,0,0,0,0,0,0,0,0,0,0,0,0,0,0,0,0,0,0,0,0,0,0],"id":33,"left_children":[1,3,5,7,9,11,13,15,17,19,21,23,25,27,29,-1,-1,-1,-1,-1,-1,-1,-1,-1,-1,-1,-1,-1,-1,-1,-1],"loss_changes":[1.0148363E3,9.6430023E2,1.33539E2,3.739227E2,5.0617627E2,1.17039734E2,1.8801514E1,7.814331E1,5.1405045E1,3.1586096E2,7.3815895E1,1.1926514E1,4.6545555E1,1.353183E1,1.2268372E0,0E0,0E0,0E0,0E0,0E0,0E0,0E0,0E0,0E0,0E0,0E0,0E0,0E0,0E0,0E0,0E0],"parents":[2147483647,0,0,1,1,2,2,3,3,4,4,5,5,6,6,7,7,8,8,9,9,10,10,11,11,12,12,13,13,14,14],"right_children":[2,4,6,8,10,12,14,16,18,20,22,24,26,28,30,-1,-1,-1,-1,-1,-1,-1,-1,-1,-1,-1,-1,-1,-1,-1,-1],"split_conditions":[1.5056369E0,6.2840897E-1,2.5584903E0,7.9648834E-1,4.230894E-1,6.526892E-1,3.3112433E0,7.577079E-1,5.261007E-1,3.016843E-1,2.5453764E-1,8.325999E-1,3.7541327E-1,1.9258222E-1,1.4570169E-1,1.0581537E-2,3.8806342E-3,-2.8202683E-3,3.8806342E-3,-3.2849178E-2,-1.2609391E-2,-1.2609391E-2,-2.8202683E-3,2.9605638E-2,2.0093588E-2,1.0581537E-2,2.0093588E-2,2.9605638E-2,4.0212426E-2,4.137801E-2,5.122753E-2],"split_indices":[4,3,4,7,5,7,4,2,0,9,0,2,0,9,0,0,0,0,0,0,0,0,0,0,0,0,0,0,0,0,0],"split_type":[0,0,0,0,0,0,0,0,0,0,0,0,0,0,0,0,0,0,0,0,0,0,0,0,0,0,0,0,0,0,0],"sum_hessian":[1.096523E4,9.11911E3,1.84612E3,4.236414E3,4.8826963E3,1.3484009E3,4.977191E2,2.9997114E3,1.2367029E3,3.2693938E3,1.6133027E3,5.6328735E2,7.851136E2,2.97656E2,2.0006308E2,2.4176594E3,5.82052E2,9.670127E2,2.6969025E2,1.706411E3,1.5629827E3,4.8095248E2,1.1323502E3,5.070227E2,5.626465E1,4.241923E2,3.609213E2,8.63974E1,2.1125862E2,1.6791262E1,1.8327182E2],"tree_param":{"num_deleted":"0","num_feature":"10","num_nodes":"31","size_leaf_vector":"1"}},{"base_weights":[4.2282693E-2,-1.4413992E-1,5.287694E-1,-5.46239E-1,1.02655165E-1,7.9918975E-1,2.1251664E-1,-2.2179192E-1,-7.806088E-1,1.9231473E-1,-2.2179192E-1,5.058532E-1,9.611635E-1,5.058532E-1,1.9231473E-1,-1.7542012E-2,-7.7627175E-3,-1.7542012E-2,-3.709443E-2,6.7310156E-3,-5.158509E-4,-7.7627175E-3,-5.158509E-4,1.7704861E-2,2.5672792E-2,3.9718073E-2,2.5672792E-2,1.2217939E-2,1.7704861E-2,6.7310156E-3,1.2217939E-2],"categories":[],"categories_nodes":[],"categories_segments":[],"categories_sizes":[],"default_left":[0,0,0,0,0,0,0,0,0,0,0,0,0,0,0,0,0,0,0,0,0,0,0,0,0,0,0,0,0,0,0],"id":34,"left_children":[1,3,5,7,9,11,13,15,17,19,21,23,25,27,29,-1,-1,-1,-1,-1,-1,-1,-1,-1,-1,-1,-1,-1,-1,-1,-1],"loss_changes":[9.939308E2,7.8649304E2,2.587954E2,3.0919397E2,4.0033725E2,1.0378003E2,1.19207596E2,5.040656E1,1.7037598E2,6.837662E1,1.0862747E2,2.1808037E1,6.021411E1,5.5867615E0,2.5508099E1,0E0,0E0,0E0,0E0,0E0,0E0,0E0,0E0,0E0,0E0,0E0,0E0,0E0,0E0,0E0,0E0],"parents":[2147483647,0,0,1,1,2,2,3,3,4,4,5,5,6,6,7,7,8,8,9,9,10,10,11,11,12,12,13,13,14,14],"right_children":[2,4,6,8,10,12,14,16,18,20,22,24,26,28,30,-1,-1,-1,-1,-1,-1,-1,-1,-1,-1,-1,-1,-1,-1,-1,-1],"split_conditions":[4.1041806E-1,2.9376695E-1,7.180373E-1,4.7529835E-1,6.859436E-1,2.4197184E-1,4.3419358E-1,1.9313489E-1,6.944738E-1,8.074194E-1,9.76563E-1,9.5766795E-1,7.1996796E-1,1.4332207E-1,1.4593407E0,-1.7542012E-2,-7.7627175E-3,-1.7542012E-2,-3.709443E-2,6.7310156E-3,-5.158509E-4,-7.7627175E-3,-5.158509E-4,1.7704861E-2,2.5672792E-2,3.9718073E-2,2.5672792E-2,1.2217939E-2,1.7704861E-2,6.7310156E-3,1.2217939E-2],"split_indices":[9,0,7,2,3,0,2,5,7,7,4,4,3,0,4,0,0,0,0,0,0,0,0,0,0,0,0,0,0,0,0],"split_type":[0,0,0,0,0,0,0,0,0,0,0,0,0,0,0,0,0,0,0,0,0,0,0,0,0,0,0,0,0,0,0],"sum_hessian":[1.0935729E4,7.906137E3,3.0295908E3,3.0071118E3,4.8990254E3,1.6289609E3,1.40063E3,1.0063252E3,2.0007866E3,2.8279565E3,2.0710688E3,4.5183902E2,1.177122E3,4.2846286E2,9.721671E2,1.9376999E2,8.1255524E2,9.559601E2,1.0448265E3,2.067184E3,7.607725E2,1.3981776E3,6.728912E2,2.9217328E2,1.5966576E2,7.585827E2,4.1853925E2,4.3813667E1,3.846492E2,7.922443E2,1.7992278E2],"tree_param":{"num_deleted":"0","num_feature":"10","num_nodes":"31","size_leaf_vector":"1"}},{"base_weights":[5.1044896E-2,-9.17064E-2,7.224542E-1,1.4214428E-1,-5.5181617E-1,5.641401E-1,1.1791034E0,-2.0483595E-1,3.153739E-1,-2.0483595E-1,-8.357591E-1,8.0033857E-1,3.153739E-1,1.3103634E0,8.716217E-1,-7.1692583E-3,1.934414E-3,1.1038086E-2,1.934414E-3,-7.1692583E-3,-1.8210413E-2,-3.7460864E-2,-1.8210413E-2,1.9524967E-2,3.050676E-2,1.1038086E-2,1.9524967E-2,3.9411977E-2,5.042989E-2,3.818474E-2,3.050676E-2],"categories":[],"categories_nodes":[],"categories_segments":[],"categories_sizes":[],"default_left":[0,0,0,0,0,0,0,0,0,0,0,0,0,0,0,0,0,0,0,0,0,0,0,0,0,0,0,0,0,0,0],"id":35,"left_children":[1,3,5,7,9,11,13,15,17,19,21,23,25,27,29,-1,-1,-1,-1,-1,-1,-1,-1,-1,-1,-1,-1,-1,-1,-1,-1],"loss_changes":[1.0524579E3,9.741719E2,1.3729474E2,5.4893243E2,3.1690497E2,1.2620474E2,2.0395386E1,1.5221973E2,1.2737146E2,8.5379715E1,1.3917041E2,4.7417908E1,3.2555443E1,3.673706E0,3.6602325E0,0E0,0E0,0E0,0E0,0E0,0E0,0E0,0E0,0E0,0E0,0E0,0E0,0E0,0E0,0E0,0E0],"parents":[2147483647,0,0,1,1,2,2,3,3,4,4,5,5,6,6,7,7,8,8,9,9,10,10,11,11,12,12,13,13,14,14],"right_children":[2,4,6,8,10,12,14,16,18,20,22,24,26,28,30,-1,-1,-1,-1,-1,-1,-1,-1,-1,-1,-1,-1,-1,-1,-1,-1],"split_conditions":[1.068148E0,6.6762173E-1,1.8806983E0,3.0572274E-1,6.7641777E-1,7.127484E-1,7.901762E-1,1.5056369E0,7.931861E-1,7.3442864E-1,7.6798457E-1,3.2370964E-1,5.068114E-1,2.241394E0,5.722118E-1,-7.1692583E-3,1.934414E-3,1.1038086E-2,1.934414E-3,-7.1692583E-3,-1.8210413E-2,-3.7460864E-2,-1.8210413E-2,1.9524967E-2,3.050676E-2,1.1038086E-2,1.9524967E-2,3.9411977E-2,5.042989E-2,3.818474E-2,3.050676E-2],"split_indices":[1,2,1,0,7,3,7,4,7,3,4,4,0,1,3,0,0,0,0,0,0,0,0,0,0,0,0,0,0,0,0],"split_type":[0,0,0,0,0,0,0,0,0,0,0,0,0,0,0,0,0,0,0,0,0,0,0,0,0,0,0,0,0,0,0],"sum_hessian":[1.0953304E4,9.033708E3,1.9195957E3,5.989464E3,3.044244E3,1.4320273E3,4.8756842E2,2.4056338E3,3.58383E3,1.3305933E3,1.7136508E3,9.104581E2,5.215692E2,3.5437576E2,1.3319266E2,1.9622645E3,4.4336926E2,2.5028872E3,1.0809429E3,8.934364E2,4.371569E2,1.0228935E3,6.907572E2,2.5802704E2,6.524311E2,3.81788E2,1.3978122E2,1.6204813E2,1.9232764E2,6.363575E1,6.95569E1],"tree_param":{"num_deleted":"0","num_feature":"10","num_nodes":"31","size_leaf_vector":"1"}},{"base_weights":[4.1518837E-2,6.3786525E-1,-1.0880971E-1,9.098095E-1,3.7282568E-1,-3.9642927E-1,2.2258571E-1,1.0625888E0,6.413176E-1,2.6452777E-1,6.413176E-1,-6.1478746E-1,-8.692178E-2,2.6452777E-1,-8.692178E-2,2.9818362E-2,4.2281926E-2,2.2446116E-2,2.9818362E-2,9.258472E-3,1.5852295E-2,1.5852295E-2,2.2446116E-2,-3.0688772E-2,-1.2279912E-2,-3.0422623E-3,-1.2279912E-2,9.258472E-3,3.1081047E-3,-3.0422623E-3,3.1081047E-3],"categories":[],"categories_nodes":[],"categories_segments":[],"categories_sizes":[],"default_left":[0,0,0,0,0,0,0,0,0,0,0,0,0,0,0,0,0,0,0,0,0,0,0,0,0,0,0,0,0,0,0],"id":36,"left_children":[1,3,5,7,9,11,13,15,17,19,21,23,25,27,29,-1,-1,-1,-1,-1,-1,-1,-1,-1,-1,-1,-1,-1,-1,-1,-1],"loss_changes":[9.798298E2,1.573725E2,8.317886E2,6.0036682E1,9.99171E1,4.9276666E2,2.7862396E2,3.028003E1,9.064041E0,2.1079266E1,1.975763E1,3.2551086E2,3.717557E1,5.648532E1,5.4898933E1,0E0,0E0,0E0,0E0,0E0,0E0,0E0,0E0,0E0,0E0,0E0,0E0,0E0,0E0,0E0,0E0],"parents":[2147483647,0,0,1,1,2,2,3,3,4,4,5,5,6,6,7,7,8,8,9,9,10,10,11,11,12,12,13,13,14,14],"right_children":[2,4,6,8,10,12,14,16,18,20,22,24,26,28,30,-1,-1,-1,-1,-1,-1,-1,-1,-1,-1,-1,-1,-1,-1,-1,-1],"split_conditions":[5.380192E-1,6.424496E-1,3.1459174E-1,6.9437826E-1,2.845359E-1,1.1272693E0,7.3442864E-1,2.670288E-1,4.230894E-1,1.3852344E0,1.6327333E-1,3.804374E-1,7.60127E-1,7.6238453E-1,1.5056369E0,2.9818362E-2,4.2281926E-2,2.2446116E-2,2.9818362E-2,9.258472E-3,1.5852295E-2,1.5852295E-2,2.2446116E-2,-3.0688772E-2,-1.2279912E-2,-3.0422623E-3,-1.2279912E-2,9.258472E-3,3.1081047E-3,-3.0422623E-3,3.1081047E-3],"split_indices":[7,3,9,2,9,4,3,5,5,4,1,5,2,2,4,0,0,0,0,0,0,0,0,0,0,0,0,0,0,0,0],"split_type":[0,0,0,0,0,0,0,0,0,0,0,0,0,0,0,0,0,0,0,0,0,0,0,0,0,0,0,0,0,0,0],"sum_hessian":[1.0902803E4,2.1944487E3,8.708354E3,1.0776515E3,1.1167972E3,4.6633984E3,4.0449553E3,7.7948334E2,2.981681E2,5.2892566E2,5.878716E2,3.3682407E3,1.2951576E3,2.72841E3,1.3165453E3,2.550472E2,5.2443616E2,2.0092189E2,9.72462E1,4.0846362E2,1.20462036E2,1.1548739E2,4.723842E2,2.0219956E3,1.346245E3,1.0479838E3,2.4717392E2,2.193591E3,5.348188E2,1.0818726E3,2.3467279E2],"tree_param":{"num_deleted":"0","num_feature":"10","num_nodes":"31","size_leaf_vector":"1"}},{"base_weights":[5.066607E-2,-2.5600916E-1,3.2916912E-1,-6.1987907E-1,3.657998E-2,3.657998E-2,5.568827E-1,-8.179701E-1,-2.9164955E-1,-2.9164955E-1,3.657998E-2,3.657998E-2,2.9673132E-1,3.7212157E-1,9.2875654E-1,-3.7625086E-2,-1.9418344E-2,-1.9418344E-2,-1.0207734E-2,-4.4637173E-3,-1.0207734E-2,1.2802994E-3,-4.4637173E-3,1.2802994E-3,5.8329483E-3,5.8329483E-3,1.0385596E-2,2.2765366E-2,1.0385596E-2,2.5912339E-2,4.074972E-2],"categories":[],"categories_nodes":[],"categories_segments":[],"categories_sizes":[],"default_left":[0,0,0,0,0,0,0,0,0,0,0,0,0,0,0,0,0,0,0,0,0,0,0,0,0,0,0,0,0,0,0],"id":37,"left_children":[1,3,5,7,9,11,13,15,17,19,21,23,25,27,29,-1,-1,-1,-1,-1,-1,-1,-1,-1,-1,-1,-1,-1,-1,-1,-1],"loss_changes":[9.307635E2,5.765604E2,4.427992E2,2.515014E2,1.7367694E2,1.3795659E2,2.3538696E2,1.4968921E2,1.5419693E1,3.1679932E1,3.7497437E1,2.7989012E1,9.98053E0,1.7693588E2,4.793335E1,0E0,0E0,0E0,0E0,0E0,0E0,0E0,0E0,0E0,0E0,0E0,0E0,0E0,0E0,0E0,0E0],"parents":[2147483647,0,0,1,1,2,2,3,3,4,4,5,5,6,6,7,7,8,8,9,9,10,10,11,11,12,12,13,13,14,14],"right_children":[2,4,6,8,10,12,14,16,18,20,22,24,26,28,30,-1,-1,-1,-1,-1,-1,-1,-1,-1,-1,-1,-1,-1,-1,-1,-1],"split_conditions":[5.538123E-1,2.8121442E-1,2.8916728E-1,9.1722983E-1,2.5095496E-1,1.6649157E0,4.4170567E-1,3.5970682E-1,1.2073436E-1,4.699977E-1,7.695122E-1,1.2067796E0,1.8280046E-1,4.641052E-1,5.1470745E-1,-3.7625086E-2,-1.9418344E-2,-1.9418344E-2,-1.0207734E-2,-4.4637173E-3,-1.0207734E-2,1.2802994E-3,-4.4637173E-3,1.2802994E-3,5.8329483E-3,5.8329483E-3,1.0385596E-2,2.2765366E-2,1.0385596E-2,2.5912339E-2,4.074972E-2],"split_indices":[4,9,5,1,0,4,0,5,0,2,2,1,9,2,1,0,0,0,0,0,0,0,0,0,0,0,0,0,0,0,0],"split_type":[0,0,0,0,0,0,0,0,0,0,0,0,0,0,0,0,0,0,0,0,0,0,0,0,0,0,0,0,0,0,0],"sum_hessian":[1.0878264E4,5.1756826E3,5.702581E3,2.3620134E3,2.8136694E3,2.2673015E3,3.4352795E3,1.8241846E3,5.378288E2,8.2833057E2,1.9853387E3,1.640948E3,6.2635345E2,2.3008303E3,1.1344491E3,1.01930884E3,8.0487573E2,4.3517216E1,4.9431158E2,2.8049243E2,5.4783813E2,1.6458556E3,3.394832E2,1.4231244E3,2.1782358E2,1.47377E2,4.789765E2,7.6143207E2,1.5393983E3,6.395337E2,4.9491544E2],"tree_param":{"num_deleted":"0","num_feature":"10","num_nodes":"31","size_leaf_vector":"1"}},{"base_weights":[3.6339946E-2,3.2161677E-1,-2.9024374E-1,6.2189597E-1,5.8116022E-2,-5.213143E-1,1.5686512E-2,8.166484E-1,3.40006E-1,1.5686512E-2,3.40006E-1,-2.528139E-1,-7.2757304E-1,-2.528139E-1,1.5686512E-2,2.024145E-2,3.4292538E-2,1.190021E-2,2.024145E-2,5.490279E-4,6.2246188E-3,6.2246188E-3,1.190021E-2,-8.8484865E-3,-1.7156772E-2,-1.7156772E-2,-3.5564125E-2,-4.1497294E-3,-8.8484865E-3,5.490279E-4,-4.1497294E-3],"categories":[],"categories_nodes":[],"categories_segments":[],"categories_sizes":[],"default_left":[0,0,0,0,0,0,0,0,0,0,0,0,0,0,0,0,0,0,0,0,0,0,0,0,0,0,0,0,0,0,0],"id":38,"left_children":[1,3,5,7,9,11,13,15,17,19,21,23,25,27,29,-1,-1,-1,-1,-1,-1,-1,-1,-1,-1,-1,-1,-1,-1,-1,-1],"loss_changes":[1.0139855E3,4.5914954E2,4.6852573E2,2.0907043E2,2.186058E2,2.7629425E2,7.8153824E1,1.03685425E2,3.57731E1,6.208259E1,2.0842865E1,3.1149483E1,1.7077185E2,3.2727028E1,6.9166775E0,0E0,0E0,0E0,0E0,0E0,0E0,0E0,0E0,0E0,0E0,0E0,0E0,0E0,0E0,0E0,0E0],"parents":[2147483647,0,0,1,1,2,2,3,3,4,4,5,5,6,6,7,7,8,8,9,9,10,10,11,11,12,12,13,13,14,14],"right_children":[2,4,6,8,10,12,14,16,18,20,22,24,26,28,30,-1,-1,-1,-1,-1,-1,-1,-1,-1,-1,-1,-1,-1,-1,-1,-1],"split_conditions":[9.8869646E-1,6.303624E-1,9.1550344E-1,7.8533727E-1,4.5512092E-1,5.410515E-1,3.2887352E-1,2.1188094E-1,4.8552778E-1,1.482446E0,1.6641435E-1,8.646391E-1,7.16291E-1,5.624239E-1,8.79028E-1,2.024145E-2,3.4292538E-2,1.190021E-2,2.024145E-2,5.490279E-4,6.2246188E-3,6.2246188E-3,1.190021E-2,-8.8484865E-3,-1.7156772E-2,-1.7156772E-2,-3.5564125E-2,-4.1497294E-3,-8.8484865E-3,5.490279E-4,-4.1497294E-3],"split_indices":[6,3,4,7,0,3,0,9,9,4,9,7,7,3,7,0,0,0,0,0,0,0,0,0,0,0,0,0,0,0,0],"split_type":[0,0,0,0,0,0,0,0,0,0,0,0,0,0,0,0,0,0,0,0,0,0,0,0,0,0,0,0,0,0,0],"sum_hessian":[1.0864857E4,5.800832E3,5.0640254E3,2.7075251E3,3.0933066E3,3.2646921E3,1.7993334E3,1.865105E3,8.4242017E2,2.0964478E3,9.96859E2,9.9769257E2,2.2669995E3,7.9503064E2,1.0043027E3,5.622441E2,1.3028608E3,6.8121924E2,1.6120096E2,1.7222261E3,3.7422162E2,1.9693063E2,7.999284E2,8.5737616E2,1.4031638E2,1.1896241E3,1.0773754E3,2.7675708E2,5.1827356E2,8.867228E2,1.1757992E2],"tree_param":{"num_deleted":"0","num_feature":"10","num_nodes":"31","size_leaf_vector":"1"}},{"base_weights":[4.2973015E-2,2.427827E-1,-3.9983118E-1,4.675854E-1,-7.852424E-2,-7.558076E-1,-1.17877424E-1,8.173673E-1,2.4833603E-1,1.9453059E-1,-7.852424E-2,-4.368425E-1,-1.0438995E0,-7.852424E-2,-4.368425E-1,3.782926E-2,2.0153899E-2,6.8085706E-3,1.8649809E-2,2.0301112E-3,6.8085706E-3,-2.7483483E-3,2.0301112E-3,-1.5289487E-2,-2.5912985E-2,-4.178254E-2,-2.5912985E-2,-2.7483483E-3,-9.018918E-3,-9.018918E-3,-1.5289487E-2],"categories":[],"categories_nodes":[],"categories_segments":[],"categories_sizes":[],"default_left":[0,0,0,0,0,0,0,0,0,0,0,0,0,0,0,0,0,0,0,0,0,0,0,0,0,0,0,0,0,0,0],"id":39,"left_children":[1,3,5,7,9,11,13,15,17,19,21,23,25,27,29,-1,-1,-1,-1,-1,-1,-1,-1,-1,-1,-1,-1,-1,-1,-1,-1],"loss_changes":[9.620683E2,6.1567944E2,3.3864038E2,3.5645367E2,1.5755423E2,1.3805316E2,1.4813301E2,1.120824E2,2.095839E2,2.3037552E1,4.828311E1,4.1489716E1,5.651178E1,2.4965569E1,3.085707E1,0E0,0E0,0E0,0E0,0E0,0E0,0E0,0E0,0E0,0E0,0E0,0E0,0E0,0E0,0E0,0E0],"parents":[2147483647,0,0,1,1,2,2,3,3,4,4,5,5,6,6,7,7,8,8,9,9,10,10,11,11,12,12,13,13,14,14],"right_children":[2,4,6,8,10,12,14,16,18,20,22,24,26,28,30,-1,-1,-1,-1,-1,-1,-1,-1,-1,-1,-1,-1,-1,-1,-1,-1],"split_conditions":[6.830428E-1,7.5597906E-1,2.7156714E-1,5.815759E-1,8.217067E-1,9.53475E-1,7.6246136E-1,9.4028485E-1,4.2697585E-1,2.0542103E-1,1.5545111E0,6.5073484E-1,1.4035457E0,1.2466153E0,7.617367E-1,3.782926E-2,2.0153899E-2,6.8085706E-3,1.8649809E-2,2.0301112E-3,6.8085706E-3,-2.7483483E-3,2.0301112E-3,-1.5289487E-2,-2.5912985E-2,-4.178254E-2,-2.5912985E-2,-2.7483483E-3,-9.018918E-3,-9.018918E-3,-1.5289487E-2],"split_indices":[2,7,9,3,6,6,7,6,9,5,4,7,4,6,6,0,0,0,0,0,0,0,0,0,0,0,0,0,0,0,0],"split_type":[0,0,0,0,0,0,0,0,0,0,0,0,0,0,0,0,0,0,0,0,0,0,0,0,0,0,0,0,0,0,0],"sum_hessian":[1.0855636E4,7.4827534E3,3.3728826E3,4.6512495E3,2.8315042E3,1.486958E3,1.8859244E3,1.787229E3,2.8640205E3,8.425132E2,1.9889908E3,7.0401074E2,7.829473E2,1.185865E3,7.000596E2,8.478486E2,9.393805E2,2.1168372E3,7.471832E2,1.6858125E2,6.7393195E2,1.6593898E3,3.296011E2,2.8804077E2,4.1596994E2,6.306298E2,1.5231744E2,1.0446581E3,1.4120691E2,1.5174834E2,5.483112E2],"tree_param":{"num_deleted":"0","num_feature":"10","num_nodes":"31","size_leaf_vector":"1"}},{"base_weights":[4.4254147E-2,6.1630154E-1,-1.10545576E-1,7.9745954E-1,2.5287798E-1,-3.174677E-1,2.5287798E-1,5.7111573E-1,1.0980432E0,5.251688E-1,2.5287798E-1,-3.2294855E-2,-6.03972E-1,2.5287798E-1,-3.2294855E-2,2.921028E-2,1.8380906E-2,4.24863E-2,2.921028E-2,1.3615818E-2,1.8380906E-2,8.850729E-3,1.3615818E-2,-1.1303199E-3,-1.113467E-2,-1.3233391E-2,-3.6489837E-2,8.850729E-3,3.8602047E-3,-1.1303199E-3,3.8602047E-3],"categories":[],"categories_nodes":[],"categories_segments":[],"categories_sizes":[],"default_left":[0,0,0,0,0,0,0,0,0,0,0,0,0,0,0,0,0,0,0,0,0,0,0,0,0,0,0,0,0,0,0],"id":40,"left_children":[1,3,5,7,9,11,13,15,17,19,21,23,25,27,29,-1,-1,-1,-1,-1,-1,-1,-1,-1,-1,-1,-1,-1,-1,-1,-1],"loss_changes":[9.578803E2,1.6494415E2,8.190851E2,1.0569989E2,4.260059E1,5.887686E2,8.366281E1,5.0429535E1,2.4369934E1,1.4233978E1,9.956577E0,1.415387E2,3.2442468E2,2.425357E1,3.185665E1,0E0,0E0,0E0,0E0,0E0,0E0,0E0,0E0,0E0,0E0,0E0,0E0,0E0,0E0,0E0,0E0],"parents":[2147483647,0,0,1,1,2,2,3,3,4,4,5,5,6,6,7,7,8,8,9,9,10,10,11,11,12,12,13,13,14,14],"right_children":[2,4,6,8,10,12,14,16,18,20,22,24,26,28,30,-1,-1,-1,-1,-1,-1,-1,-1,-1,-1,-1,-1,-1,-1,-1,-1],"split_conditions":[5.4422283E-1,7.380943E-1,7.408881E-1,3.8255304E-1,9.377748E-1,6.1948216E-1,7.8737867E-1,4.43179E-1,1.1411752E0,2.9224503E-1,1.7971729E0,6.7624533E-1,1.0751342E0,1.2425339E0,1.3595358E0,2.921028E-2,1.8380906E-2,4.24863E-2,2.921028E-2,1.3615818E-2,1.8380906E-2,8.850729E-3,1.3615818E-2,-1.1303199E-3,-1.113467E-2,-1.3233391E-2,-3.6489837E-2,8.850729E-3,3.8602047E-3,-1.1303199E-3,3.8602047E-3],"split_indices":[7,3,1,5,6,3,3,2,6,1,4,2,6,6,1,0,0,0,0,0,0,0,0,0,0,0,0,0,0,0,0],"split_type":[0,0,0,0,0,0,0,0,0,0,0,0,0,0,0,0,0,0,0,0,0,0,0,0,0,0,0,0,0,0,0],"sum_hessian":[1.0790621E4,2.2975955E3,8.493025E3,1.5771664E3,7.204291E2,5.9638765E3,2.5291492E3,9.06549E2,6.706174E2,3.36041E2,3.8438812E2,2.682306E3,3.2815703E3,1.9464285E3,5.827206E2,2.7014206E2,6.36407E2,5.0426938E2,1.66348E2,1.0950678E2,2.265342E2,3.2941547E2,5.497264E1,1.8250443E3,8.572617E2,2.171249E3,1.1103213E3,1.6971903E3,2.4923822E2,3.578937E2,2.2482684E2],"tree_param":{"num_deleted":"0","num_feature":"10","num_nodes":"31","size_leaf_vector":"1"}},{"base_weights":[3.762507E-2,-1.432721E-1,5.0511736E-1,-3.609672E-1,1.8092263E-1,7.58655E-1,1.9969045E-1,-6.172677E-1,-9.002228E-2,1.8092263E-1,-9.002228E-2,4.871749E-1,1.0018349E0,1.8092263E-1,4.7917274E-1,-3.079508E-2,-1.2377575E-2,-3.1507798E-3,-1.2377575E-2,6.3322918E-3,1.5907561E-3,-3.1507798E-3,1.5907561E-3,1.6771046E-2,2.605767E-2,2.605767E-2,3.96632E-2,6.3322918E-3,1.1551668E-2,1.1551668E-2,1.6771046E-2],"categories":[],"categories_nodes":[],"categories_segments":[],"categories_sizes":[],"default_left":[0,0,0,0,0,0,0,0,0,0,0,0,0,0,0,0,0,0,0,0,0,0,0,0,0,0,0,0,0,0,0],"id":41,"left_children":[1,3,5,7,9,11,13,15,17,19,21,23,25,27,29,-1,-1,-1,-1,-1,-1,-1,-1,-1,-1,-1,-1,-1,-1,-1,-1],"loss_changes":[9.142105E2,7.2879504E2,2.3275769E2,4.7952472E2,8.82262E1,1.06982605E2,8.975113E1,2.785609E2,9.370529E1,2.7505066E1,2.722496E1,4.374913E1,3.1518066E1,3.2448067E1,4.564148E0,0E0,0E0,0E0,0E0,0E0,0E0,0E0,0E0,0E0,0E0,0E0,0E0,0E0,0E0,0E0,0E0],"parents":[2147483647,0,0,1,1,2,2,3,3,4,4,5,5,6,6,7,7,8,8,9,9,10,10,11,11,12,12,13,13,14,14],"right_children":[2,4,6,8,10,12,14,16,18,20,22,24,26,28,30,-1,-1,-1,-1,-1,-1,-1,-1,-1,-1,-1,-1,-1,-1,-1,-1],"split_conditions":[4.7181308E-1,7.003842E-1,6.745364E-1,3.804374E-1,7.8737867E-1,2.983135E-1,9.523537E-1,3.333147E-1,1.1528649E0,1.2380445E0,1.6251955E0,1.2123833E0,3.4670746E-1,5.162758E-1,1.4040801E-1,-3.079508E-2,-1.2377575E-2,-3.1507798E-3,-1.2377575E-2,6.3322918E-3,1.5907561E-3,-3.1507798E-3,1.5907561E-3,1.6771046E-2,2.605767E-2,2.605767E-2,3.96632E-2,6.3322918E-3,1.1551668E-2,1.1551668E-2,1.6771046E-2],"split_indices":[0,1,3,5,3,9,1,9,6,6,1,4,4,9,5,0,0,0,0,0,0,0,0,0,0,0,0,0,0,0,0],"split_type":[0,0,0,0,0,0,0,0,0,0,0,0,0,0,0,0,0,0,0,0,0,0,0,0,0,0,0,0,0,0,0],"sum_hessian":[1.0786065E4,7.776769E3,3.0092966E3,5.2623076E3,2.5144614E3,1.6401047E3,1.3691919E3,3.110693E3,2.1516147E3,1.9687798E3,5.456817E2,7.811594E2,8.589454E2,1.0754982E3,2.9369366E2,1.7839265E3,1.3267666E3,1.677739E3,4.7387558E2,1.7055227E3,2.6325705E2,4.2025378E2,1.254279E2,5.747517E2,2.0640768E2,2.6638757E2,5.925578E2,9.1939E2,1.5610823E2,2.389124E1,2.6980243E2],"tree_param":{"num_deleted":"0","num_feature":"10","num_nodes":"31","size_leaf_vector":"1"}},{"base_weights":[4.0573973E-2,-1.9801342E-1,4.0476942E-1,1.03378E-1,-4.8413134E-1,2.5088066E-1,9.4163793E-1,1.03378E-1,-1.9037667E-1,-2.1305376E-1,-8.03237E-1,5.962593E-1,1.03378E-1,7.3040766E-1,1.2024373E0,3.6182299E-3,-1.5224768E-3,-6.6631837E-3,-1.5224768E-3,-1.778509E-2,-6.6631837E-3,-3.549717E-2,-1.778509E-2,2.0869076E-2,1.2243653E-2,1.2243653E-2,3.6182299E-3,2.0869076E-2,3.3824787E-2,4.581516E-2,3.3824787E-2],"categories":[],"categories_nodes":[],"categories_segments":[],"categories_sizes":[],"default_left":[0,0,0,0,0,0,0,0,0,0,0,0,0,0,0,0,0,0,0,0,0,0,0,0,0,0,0,0,0,0,0],"id":42,"left_children":[1,3,5,7,9,11,13,15,17,19,21,23,25,27,29,-1,-1,-1,-1,-1,-1,-1,-1,-1,-1,-1,-1,-1,-1,-1,-1],"loss_changes":[9.389724E2,5.867619E2,3.5267334E2,1.7881784E2,2.948365E2,2.774344E2,4.971277E1,4.228112E1,1.8520935E1,1.2186096E2,1.1734723E2,2.732962E1,1.3112878E2,3.1780487E1,1.0045593E1,0E0,0E0,0E0,0E0,0E0,0E0,0E0,0E0,0E0,0E0,0E0,0E0,0E0,0E0,0E0,0E0],"parents":[2147483647,0,0,1,1,2,2,3,3,4,4,5,5,6,6,7,7,8,8,9,9,10,10,11,11,12,12,13,13,14,14],"right_children":[2,4,6,8,10,12,14,16,18,20,22,24,26,28,30,-1,-1,-1,-1,-1,-1,-1,-1,-1,-1,-1,-1,-1,-1,-1,-1],"split_conditions":[5.7446724E-1,6.925111E-1,1.4904982E0,7.3292E-1,6.686876E-1,7.951993E-1,1.980985E0,1.1615099E0,1.5056369E0,5.4831976E-1,4.0035278E-1,8.0427104E-1,5.192119E-1,3.9802253E-1,7.901762E-1,3.6182299E-3,-1.5224768E-3,-6.6631837E-3,-1.5224768E-3,-1.778509E-2,-6.6631837E-3,-3.549717E-2,-1.778509E-2,2.0869076E-2,1.2243653E-2,1.2243653E-2,3.6182299E-3,2.0869076E-2,3.3824787E-2,4.581516E-2,3.3824787E-2],"split_indices":[1,7,1,2,3,6,1,6,4,4,5,3,2,5,7,0,0,0,0,0,0,0,0,0,0,0,0,0,0,0,0],"split_type":[0,0,0,0,0,0,0,0,0,0,0,0,0,0,0,0,0,0,0,0,0,0,0,0,0,0,0,0,0,0,0],"sum_hessian":[1.0785059E4,6.515394E3,4.2696646E3,3.1045947E3,3.4107993E3,3.323326E3,9.463385E2,2.3974954E3,7.0709937E2,1.8485815E3,1.5622178E3,8.344023E2,2.4889236E3,5.312761E2,4.1506235E2,1.8912883E3,5.0620712E2,5.85534E2,1.2156538E2,8.7454095E2,9.740406E2,9.888064E2,5.734113E2,6.789543E2,1.5544801E2,1.0365383E3,1.4523853E3,3.3261987E2,1.9865627E2,3.0307547E2,1.1198687E2],"tree_param":{"num_deleted":"0","num_feature":"10","num_nodes":"31","size_leaf_vector":"1"}},{"base_weights":[4.439742E-2,5.7818574E-1,-1.1484628E-1,9.436143E-1,3.700472E-1,-3.7897474E-1,2.3166972E-1,6.568308E-1,1.1040739E0,6.568308E-1,2.3166972E-1,-7.234479E-1,-7.3652506E-2,2.3166972E-1,-7.3652506E-2,3.0815832E-2,2.2989077E-2,4.204165E-2,3.0815832E-2,1.5548759E-2,2.2989077E-2,8.108441E-3,1.5548759E-2,-1.595847E-2,-3.654494E-2,-1.3949257E-2,-2.5778378E-3,8.108441E-3,2.7653014E-3,-2.5778378E-3,2.7653014E-3],"categories":[],"categories_nodes":[],"categories_segments":[],"categories_sizes":[],"default_left":[0,0,0,0,0,0,0,0,0,0,0,0,0,0,0,0,0,0,0,0,0,0,0,0,0,0,0,0,0,0,0],"id":43,"left_children":[1,3,5,7,9,11,13,15,17,19,21,23,25,27,29,-1,-1,-1,-1,-1,-1,-1,-1,-1,-1,-1,-1,-1,-1,-1,-1],"loss_changes":[9.1503107E2,1.8698877E2,7.875452E2,5.4641296E1,1.22595535E2,5.0657513E2,1.8858626E2,6.8222885E0,1.7137634E1,2.4026825E1,3.8413387E1,1.9185144E2,1.5728177E2,2.8861603E1,4.502768E1,0E0,0E0,0E0,0E0,0E0,0E0,0E0,0E0,0E0,0E0,0E0,0E0,0E0,0E0,0E0,0E0],"parents":[2147483647,0,0,1,1,2,2,3,3,4,4,5,5,6,6,7,7,8,8,9,9,10,10,11,11,12,12,13,13,14,14],"right_children":[2,4,6,8,10,12,14,16,18,20,22,24,26,28,30,-1,-1,-1,-1,-1,-1,-1,-1,-1,-1,-1,-1,-1,-1,-1,-1],"split_conditions":[4.876143E-1,8.763888E-1,3.944297E-1,2.518009E-1,5.2451324E-1,5.60117E-1,7.606958E-1,7.512875E-1,7.417509E-1,2.3812726E-1,8.772107E-1,6.054064E-1,1.9757646E-1,1.1792947E0,4.18368E-1,3.0815832E-2,2.2989077E-2,4.204165E-2,3.0815832E-2,1.5548759E-2,2.2989077E-2,8.108441E-3,1.5548759E-2,-1.595847E-2,-3.654494E-2,-1.3949257E-2,-2.5778378E-3,8.108441E-3,2.7653014E-3,-2.5778378E-3,2.7653014E-3],"split_indices":[3,6,0,5,2,4,7,7,2,0,4,2,9,6,9,0,0,0,0,0,0,0,0,0,0,0,0,0,0,0,0],"split_type":[0,0,0,0,0,0,0,0,0,0,0,0,0,0,0,0,0,0,0,0,0,0,0,0,0,0,0,0,0,0,0],"sum_hessian":[1.0738708E4,